/*
 * weights.h
 *
 *  Created on: 04-May-2017
 *      Author: djvishnu92
 */

#ifndef WEIGHTS_H_
#define WEIGHTS_H_

/* Convolution Layer - Weights */
const float32_t wt1[]={-0.272457480430603 , -0.075053133070469 , 0.265705585479736 , 0.543009161949158 , 0.264521777629852 , 0.442422240972519 , -0.330361247062683 , -0.332875669002533 , 0.055941883474588 , 0.160307094454765 , 0.398100346326828 , 0.128462791442871 , -0.424983948469162 , -0.467107266187668 , -0.010043277405202 , 0.568525552749634 , 0.092539846897125 , -0.035897653549910 , -0.311224430799484 , 0.119852833449841 , -0.287069618701935 , -0.493647456169128 , -0.588300466537476 , 0.020903587341309 , 0.521338701248169  };
const float32_t wt2[]={-0.159553483128548 , -0.023601850494742 , -0.228887423872948 , -0.040978573262692 , -0.264856040477753 , -0.225682824850082 , -0.414052575826645 , 0.353615105152130 , 0.130683138966560 , 0.117963947355747 , 0.261423856019974 , -0.325908869504929 , 0.127252191305161 , 0.491408407688141 , -0.129577815532684 , 0.232403457164764 , -0.176152616739273 , -0.343223571777344 , -0.081615120172501 , 0.033003438264132 , -0.005506722256541 , -0.377916961908340 , -0.243433535099030 , 0.593176066875458 , 0.472520977258682 };
const float32_t wt3[]={-0.029985411092639 , -0.437155157327652 , -0.435781389474869 , -0.737009286880493 , -0.179687082767487 , -0.115223132073879 , -0.060860343277454 , -0.560799241065979 , -0.730413019657135 , -0.669040858745575 , -0.029410678893328 , 0.320148348808289 , 0.375371009111404 , -0.096430726349354 , -0.441475808620453 , 0.388394534587860 , 0.493442982435226 , 0.278725981712341 , 0.680187702178955 , 0.461403697729111 , 0.387233823537827 , 0.260647445917130 , 0.371702760457993 , 0.575864553451538 , 0.348847806453705   };


/* Convolution Layer - Bias */
const float32_t b1=-0.11298651248216600000;
const float32_t b2=0.15560404956340800000;
const float32_t b3=0.19341477751731900000;


/* Input Image[1024] */
//char im[]={77,76,84,94,113,125,132,143,163,233,252,242,236,181,144,147,174,208,236,243,221,187,140,97,96,105,99,86,77,72,68,67,83,80,86,105,133,128,109,130,192,250,251,251,208,154,150,166,183,204,228,241,238,218,160,110,99,103,101,90,80,76,76,79,79,84,89,117,133,114,120,185,239,253,251,243,192,170,204,208,173,168,211,236,238,243,188,129,117,114,104,92,82,73,74,78,76,84,94,123,125,112,145,212,241,254,247,235,190,197,224,235,220,196,197,224,241,239,224,171,120,101,110,111,91,73,74,77,73,83,100,127,122,121,160,213,243,244,239,220,192,201,215,217,206,191,181,183,183,166,176,143,113,92,99,115,105,76,76,85,72,95,122,127,114,116,149,182,183,171,164,151,138,136,137,133,126,120,115,112,109,99,102,95,91,92,97,107,105,79,78,100,93,108,137,117,102,105,118,129,123,118,115,111,108,105,105,106,107,107,110,112,104,110,106,106,105,110,103,98,97,76,77,101,127,132,145,126,116,117,120,122,126,130,135,138,140,143,144,145,148,152,155,147,132,126,110,105,101,100,93,87,83,71,74,87,159,162,158,157,139,127,127,125,126,132,141,146,152,150,143,140,142,147,155,151,132,116,96,88,85,83,82,77,72,70,72,75,179,181,175,170,139,117,111,103,103,107,117,116,115,108,100,100,101,102,110,118,111,108,109,98,89,86,81,76,73,72,71,75,183,181,177,164,134,108,97,94,102,104,104,108,101,110,126,135,133,125,110,102,102,98,121,112,95,84,78,76,76,73,72,76,165,165,149,158,135,103,94,99,108,106,99,126,136,174,210,221,218,205,172,143,125,98,106,108,98,85,79,79,78,74,73,77,139,134,106,133,129,105,100,107,108,107,114,140,181,215,233,242,238,222,203,177,156,126,98,97,100,91,84,85,82,77,79,87,174,119,89,120,126,108,106,117,113,111,138,156,174,168,189,214,205,177,154,129,141,157,115,100,108,99,95,95,87,80,84,88,196,130,84,113,127,114,115,119,100,116,179,162,146,129,145,178,182,158,144,136,123,180,126,95,114,113,107,104,91,81,84,91,170,134,94,115,133,126,122,118,94,141,216,188,182,166,140,127,122,139,188,199,124,199,153,98,101,114,110,98,89,84,85,97,147,129,103,116,142,141,130,120,97,159,229,226,213,198,157,164,155,147,205,204,127,189,178,103,102,116,108,94,89,86,86,91,129,127,115,122,131,135,137,123,98,172,239,228,214,168,149,174,160,138,191,210,127,180,168,100,103,118,106,90,88,87,87,93,115,110,104,105,108,125,143,127,98,150,227,228,175,134,149,188,173,140,167,176,126,186,166,99,106,117,101,87,88,87,90,94,134,134,133,134,132,141,144,122,101,131,212,170,119,122,149,177,169,142,138,138,151,196,144,94,100,111,101,89,90,91,94,95,169,168,167,164,159,149,141,131,110,107,158,170,140,125,137,156,170,177,177,187,201,172,112,97,115,111,97,91,90,90,92,93,181,178,177,174,167,146,126,127,127,109,109,159,185,187,196,205,212,218,220,222,191,134,116,112,113,99,91,93,92,87,87,88,183,176,171,169,166,143,115,111,124,122,103,114,165,202,222,232,236,237,232,207,158,117,117,110,98,88,89,93,89,85,82,85,154,147,140,128,144,142,113,97,100,118,123,106,117,148,165,186,189,185,196,186,147,118,110,99,88,83,88,90,83,80,78,81,166,135,102,95,129,139,114,93,88,113,132,130,107,107,109,121,121,117,137,155,148,123,112,95,82,80,88,88,80,80,77,80,199,161,95,88,124,137,117,97,93,110,120,131,122,111,113,108,106,110,116,130,142,128,114,95,80,79,86,86,80,81,78,82,168,158,108,83,117,139,123,105,102,105,111,116,127,125,137,135,129,131,131,136,138,128,110,94,81,77,82,82,79,80,80,82,133,123,110,98,122,144,137,123,124,121,123,124,128,133,135,137,135,127,123,130,137,120,109,99,84,76,76,79,80,80,81,85,134,126,116,109,121,139,144,138,135,132,132,129,127,121,121,132,135,121,108,111,118,120,111,106,91,77,73,76,80,81,83,93,128,122,115,111,110,107,106,104,102,101,101,99,100,85,93,125,140,120,100,113,137,144,115,103,94,80,73,78,88,95,100,101,93,96,85,74,73,77,81,87,90,91,94,89,79,79,81,114,139,121,99,115,144,164,117,102,92,82,75,80,93,103,109,100,85,98,77,70,69,74,85,92,88,84,90,98,86,81,81,112,137,122,96,111,144,156,115,98,96,88,78,75,87,101,99,94};

//char im[]={38 , 38 , 50 , 39 , 37 , 36 , 35 , 44 , 52 , 51 , 54 , 57 , 58 , 59 , 61 , 71 , 60 , 49 , 39 , 59 , 101 , 81 , 45 , 50 , 53 , 61 , 61 , 52 , 67 , 96 , 81 , 56 , 40 , 39 , 39 , 40 , 36 , 34 , 38 , 49 , 53 , 53 , 59 , 64 , 61 , 56 , 63 , 75 , 64 , 50 , 39 , 51 , 75 , 61 , 58 , 59 , 47 , 47 , 56 , 59 , 81 , 91 , 101 , 96 , 68 , 45 , 39 , 42 , 39 , 40 , 42 , 45 , 51 , 54 , 63 , 71 , 71 , 61 , 73 , 80 , 66 , 50 , 39 , 45 , 60 , 65 , 61 , 55 , 54 , 63 , 70 , 70 , 68 , 67 , 161 , 242 , 233 , 133 , 50 , 54 , 59 , 70 , 72 , 56 , 56 , 55 , 57 , 68 , 69 , 65 , 74 , 84 , 66 , 48 , 38 , 42 , 54 , 61 , 65 , 61 , 60 , 70 , 77 , 63 , 50 , 70 , 135 , 144 , 167 , 126 , 81 , 69 , 78 , 82 , 75 , 66 , 61 , 57 , 54 , 58 , 65 , 69 , 75 , 81 , 67 , 51 , 39 , 40 , 46 , 45 , 47 , 51 , 52 , 50 , 47 , 45 , 45 , 77 , 82 , 75 , 102 , 115 , 102 , 94 , 92 , 95 , 78 , 68 , 67 , 68 , 68 , 66 , 60 , 58 , 69 , 82 , 75 , 54 , 42 , 38 , 42 , 44 , 43 , 40 , 41 , 45 , 47 , 48 , 45 , 88 , 138 , 151 , 96 , 95 , 66 , 62 , 80 , 99 , 77 , 66 , 63 , 64 , 64 , 60 , 53 , 56 , 68 , 80 , 77 , 62 , 50 , 52 , 68 , 78 , 67 , 48 , 45 , 60 , 64 , 57 , 46 , 93 , 92 , 84 , 77 , 58 , 47 , 58 , 67 , 76 , 67 , 61 , 56 , 52 , 49 , 50 , 45 , 53 , 67 , 77 , 58 , 63 , 64 , 63 , 81 , 92 , 73 , 53 , 48 , 49 , 50 , 49 , 44 , 65 , 56 , 120 , 53 , 52 , 68 , 81 , 77 , 71 , 63 , 60 , 56 , 46 , 42 , 40 , 39 , 50 , 65 , 63 , 46 , 55 , 64 , 59 , 52 , 68 , 77 , 62 , 49 , 43 , 43 , 44 , 43 , 45 , 63 , 223 , 68 , 64 , 88 , 86 , 77 , 64 , 60 , 70 , 68 , 50 , 45 , 42 , 41 , 53 , 61 , 55 , 56 , 55 , 58 , 66 , 69 , 79 , 82 , 63 , 50 , 41 , 40 , 44 , 44 , 47 , 62 , 132 , 74 , 87 , 124 , 93 , 77 , 61 , 55 , 67 , 67 , 54 , 49 , 46 , 48 , 62 , 55 , 66 , 88 , 80 , 55 , 63 , 72 , 81 , 75 , 55 , 47 , 41 , 41 , 44 , 50 , 61 , 74 , 67 , 87 , 101 , 132 , 110 , 90 , 63 , 55 , 67 , 69 , 79 , 113 , 102 , 71 , 66 , 53 , 75 , 120 , 102 , 65 , 59 , 60 , 59 , 60 , 53 , 47 , 44 , 44 , 42 , 65 , 105 , 119 , 79 , 120 , 97 , 98 , 108 , 76 , 57 , 54 , 66 , 93 , 160 , 216 , 167 , 87 , 59 , 61 , 107 , 138 , 122 , 81 , 60 , 62 , 64 , 58 , 53 , 47 , 44 , 44 , 41 , 64 , 103 , 95 , 112 , 184 , 172 , 108 , 80 , 60 , 49 , 54 , 78 , 150 , 223 , 200 , 122 , 69 , 58 , 90 , 129 , 137 , 135 , 106 , 67 , 56 , 67 , 57 , 50 , 46 , 43 , 54 , 72 , 74 , 93 , 122 , 190 , 231 , 195 , 123 , 73 , 55 , 41 , 57 , 108 , 185 , 198 , 155 , 97 , 61 , 72 , 114 , 135 , 138 , 136 , 126 , 90 , 56 , 60 , 58 , 53 , 45 , 44 , 84 , 127 , 139 , 166 , 200 , 234 , 201 , 165 , 151 , 118 , 56 , 42 , 64 , 140 , 182 , 146 , 106 , 74 , 60 , 90 , 126 , 139 , 138 , 137 , 132 , 111 , 72 , 59 , 61 , 57 , 46 , 42 , 101 , 173 , 171 , 139 , 170 , 237 , 131 , 168 , 217 , 153 , 63 , 42 , 74 , 172 , 183 , 126 , 88 , 62 , 73 , 116 , 134 , 138 , 137 , 137 , 135 , 126 , 92 , 65 , 63 , 63 , 49 , 47 , 79 , 128 , 113 , 71 , 101 , 160 , 110 , 173 , 227 , 185 , 67 , 44 , 63 , 144 , 159 , 111 , 71 , 63 , 102 , 130 , 135 , 136 , 136 , 137 , 135 , 133 , 113 , 74 , 59 , 64 , 56 , 56 , 60 , 54 , 61 , 78 , 72 , 108 , 152 , 163 , 169 , 143 , 62 , 43 , 47 , 84 , 111 , 84 , 60 , 83 , 123 , 133 , 135 , 136 , 136 , 136 , 134 , 132 , 126 , 96 , 61 , 57 , 59 , 59 , 57 , 53 , 59 , 87 , 69 , 159 , 209 , 184 , 164 , 131 , 72 , 40 , 44 , 57 , 78 , 69 , 66 , 96 , 131 , 127 , 116 , 124 , 133 , 128 , 120 , 112 , 124 , 109 , 80 , 58 , 58 , 56 , 51 , 49 , 59 , 78 , 110 , 219 , 230 , 222 , 214 , 164 , 98 , 50 , 48 , 58 , 66 , 62 , 82 , 116 , 114 , 83 , 77 , 89 , 106 , 107 , 82 , 68 , 102 , 113 , 96 , 66 , 58 , 60 , 54 , 60 , 100 , 142 , 207 , 247 , 217 , 239 , 219 , 170 , 126 , 72 , 61 , 67 , 58 , 70 , 108 , 125 , 77 , 52 , 48 , 54 , 64 , 63 , 50 , 46 , 66 , 99 , 106 , 76 , 59 , 64 , 59 , 81 , 157 , 224 , 226 , 180 , 208 , 194 , 166 , 169 , 161 , 101 , 68 , 62 , 54 , 88 , 122 , 125 , 108 , 103 , 101 , 101 , 101 , 98 , 96 , 96 , 99 , 111 , 117 , 96 , 64 , 58 , 60 , 78 , 199 , 206 , 193 , 129 , 144 , 127 , 139 , 157 , 151 , 106 , 66 , 57 , 55 , 74 , 85 , 94 , 86 , 85 , 85 , 85 , 84 , 83 , 82 , 82 , 83 , 82 , 85 , 79 , 57 , 52 , 56 , 62 , 100 , 101 , 110 , 105 , 107 , 163 , 212 , 176 , 136 , 91 , 65 , 54 , 49 , 51 , 52 , 53 , 52 , 53 , 53 , 51 , 51 , 51 , 50 , 50 , 51 , 50 , 49 , 49 , 47 , 50 , 58 , 61 , 55 , 58 , 66 , 81 , 126 , 174 , 173 , 143 , 103 , 70 , 68 , 73 , 73 , 73 , 74 , 73 , 73 , 74 , 73 , 73 , 74 , 71 , 69 , 70 , 69 , 68 , 67 , 67 , 67 , 69 , 64 , 63 , 55 , 53 , 54 , 56 , 101 , 101 , 93 , 86 , 76 , 62 , 61 , 64 , 61 , 63 , 70 , 69 , 71 , 77 , 66 , 52 , 49 , 47 , 56 , 53 , 58 , 61 , 58 , 55 , 56 , 55 , 51 , 54 , 59 , 53 , 44 , 46 , 69 , 73 , 69 , 66 , 59 , 52 , 52 , 54 , 55 , 58 , 63 , 67 , 72 , 77 , 62 , 51 , 43 , 38 , 38 , 52 , 62 , 54 , 50 , 55 , 96 , 120 , 115 , 66 , 51 , 48 , 47 , 53 , 113 , 73 , 56 , 59 , 54 , 56 , 54 , 57 , 62 , 67 , 74 , 81 , 69 , 78 , 69 , 56 , 45 , 39 , 35 , 42 , 54 , 50 , 52 , 100 , 196 , 234 , 217 , 195 , 189 , 105 , 68 , 78 , 88 , 58 , 53 , 54 , 58 , 62 , 60 , 63 , 78 , 88 , 91 , 79 , 61 , 59 , 58 , 57 , 48 , 39 , 35 , 37 , 45 , 47 , 47 , 74 , 143 , 172 , 149 , 213 , 216 , 152 , 121 , 109 , 54 , 53 , 54 , 56 , 57 , 58 , 59 , 69 , 77 , 76 , 74 , 60 , 58 , 56 , 56 , 60 , 48 , 39 , 34 , 35 , 42 , 44 , 42 , 46 , 58 , 61 , 56 , 83 , 119 , 143 , 164 , 101 , 51 , 54 , 55 , 55 , 56 , 57 , 62 , 66 , 60 , 55 , 56 , 59 , 65 , 62 , 66 , 61 , 48 , 38 , 33 , 34 , 39 , 40 , 41 , 43 , 43 , 42 , 57 , 78 , 105 , 142 , 109 , 89 };


const float32_t fc_wts[] = {
		0.076276272535324 , 0.149714067578316 , 0.074706248939037 , 0.012157419696450 , -0.005681386217475 , -0.088632538914681 , 0.026596613228321 , -0.046521555632353 , 0.183999791741371 , 0.211390301585197 , -0.038936980068684 , 0.055722486227751 , 0.107016205787659 , 0.176622599363327 , -0.052592616528273 , -0.101238831877708 , -0.016812728717923 , -0.056179676204920 , -0.098821781575680 , -0.059256698936224 , -0.054164845496416 , -0.061892420053482 , -0.175249218940735 , 0.064589314162731 , 0.020822975784540 , 0.137619450688362 , -0.005731346085668 , 0.076873615384102 , -0.101601384580135 , -0.020285712555051 , -0.081856124103069 , -0.113371185958385 , -0.108207501471043 , 0.038135420531035 , -0.135823577642441 , -0.080553613603115 , 0.122382834553719 , 0.118557862937450 , -0.068271048367024 , -0.112591654062271 , 0.019337890669704 , 0.056539662182331 , -0.014262700453401 , 0.129621326923370 , 0.024559188634157 , -0.030436113476753 , -0.056181725114584 , 0.045983601361513 , -0.270455032587051 , -0.061321754008532 , 0.390450865030289 , -0.008164118975401 , 0.091490052640438 , -0.021746054291725 , -0.061250183731318 , 0.243021175265312 , 0.015995429828763 , -0.099602900445461 , -0.136933997273445 , 0.064993120729923 , -0.302070736885071 , -0.281160354614258 , -0.404415011405945 , 0.206221103668213 , 0.044274341315031 , 0.096794009208679 , -0.016309158876538 , -0.094122461974621 , -0.060532640665770 , -0.077751241624355 , -0.010996927507222 , 0.079522043466568 , 0.053918637335300 , 0.080147996544838 , -0.413984715938568 , -0.443948835134506 , -0.139501705765724 , 0.323488056659698 , 0.275676339864731 , 0.125156909227371 , 0.016707716509700 , 0.007689411751926 , -0.024131884798408 , -0.030967231839895 , 0.103820428252220 , 0.149955675005913 , 0.069502398371697 , -0.175446510314941 , -0.239654317498207 , -0.100621096789837 , 0.728932142257690 , -0.090948179364204 , -0.115949548780918 , 0.097981154918671 , -0.060143351554871 , 0.040084589272738 , 0.008686941117048 , -0.096643507480621 , 0.042334627360106 , 0.088215552270412 , -0.119404584169388 , -0.276965379714966 , 0.182425111532211 , -0.388586491346359 , 0.202220901846886 , 0.310140430927277 , 0.024862483143807 , 0.162635758519173 , 0.194224745035172 , 0.077565371990204 , 0.067714557051659 , 0.045506980270147 , 0.093768917024136 , 0.015094864182174 , 0.102210797369480 , -0.057214137166739 , 0.225510269403458 , 0.107055045664310 , 0.607730865478516 , 0.051241114735603 , -0.046972032636404 , -0.072369873523712 , 0.005487243179232 , 0.181138098239899 , -0.020966310054064 , 0.037376340478659 , -0.071146547794342 , -0.028286825865507 , 0.128250420093536 , 0.257065117359161 , 0.379725933074951 , 0.360034942626953 , -0.065642952919006 , -0.106259532272816 , -0.216707184910774 , 0.053527791053057 , 0.197195991873741 , 0.074879676103592 , -0.083409756422043 , -0.165170088410378 , -0.160847425460815 , -0.045601911842823 , -0.087422259151936 , -0.040348928421736 , 0.125850006937981 , -0.179892003536224 , -0.208219483494759 , 0.091176845133305 , 0.131443396210670 , -0.117863133549690 , 0.037448767572641 , -0.130562677979469 , -0.079110659658909 , -0.016636563464999 , -0.151007533073425 , -0.043547913432121 , 0.024029083549976 , -0.018719673156738 , -0.068345084786415 , 0.075921699404717 , -0.242885157465935 , -0.188338056206703 , 0.034795798361301 , 0.083359211683273 , -0.045855470001698 , 0.083826184272766 , -0.022928610444069 , -0.005822708830237 , 0.184502318501472 , 0.064280904829502 , -0.102563880383968 , -0.015487317927182 , -0.151574671268463 , -0.002352029085159 , -0.133668094873428 , -0.069237209856510 , 0.194733768701553 , 0.063109576702118 , -0.004274131730199 , 0.145719707012177 , 0.040164917707443 , 0.032885678112507 , 0.112007193267345 , 0.143422439694405 , 0.127597242593765 , -0.095532767474651 , -0.037681140005589 , 0.039923384785652 , 0.083054237067699 , -0.011769973672926 , 0.203443601727486 , 0.022937342524529 , 0.176593050360680 , 0.019577775150538 , 0.044791173189879 , -0.015829255804420 , 0.194635689258575 , 0.127240702509880 , 0.044035978615284 , 0.001483240863308 , -0.091746017336845 , -0.146771237254143 , 0.145311981439590 , 0.260885387659073 , 0.125773087143898 , 0.067188538610935 , 0.094421423971653 , -0.036826882511377 , -0.043157454580069 , -0.094299860298634 , 0.137021884322166 , -0.042066030204296 , 0.004439898766577 , 0.140294715762138 , -0.144448846578598 , -0.026667216792703 , 0.012151489034295 , 0.185444489121437 , 0.025231871753931 , 0.067693203687668 , 0.024954492226243 , 0.121328495442867 , 0.002284531947225 , 0.008777289651334 , 0.019912227988243 , 0.038110062479973 , 0.081273339688778 , 0.064797349274159 , -0.058293148875237 , -0.144719138741493 , -0.201999410986900 , -0.190316259860992 , 0.004665481392294 , 0.253609210252762 , 0.126686424016953 , 0.129275485873222 , -0.102772437036037 , -0.171241253614426 , 0.010249948129058 , 0.044590894132853 , -0.055578097701073 , 0.137583583593369 , -0.121500164270401 , -0.008458528667688 , -0.219880431890488 , -0.310585677623749 , -0.098534464836121 , 0.143974900245667 , 0.118478789925575 , 0.095041275024414 , -0.123397625982761 , -0.094965517520905 , -0.064439885318279 , -0.000222122427658 , -0.169218048453331 , 0.117152981460094 , 0.063986986875534 , -0.139355704188347 , -0.072288930416107 , -0.259629726409912 , 0.032509323209524 , -0.103877879679203 , 0.114226333796978 , -0.101913303136826 , -0.083883300423622 , -0.191020980477333 , 0.036873012781143 , -0.046977151185274 , 0.039728756994009 , 0.265079557895660 , 0.005887497216463 , -0.595757842063904 , 0.103136047720909 , -0.114550493657589 , -0.037561494857073 , 0.051484785974026 , -0.085609614849091 , -0.079228103160858 , -0.227181464433670 , -0.075597397983074 , 0.000522713758983 , 0.088713794946671 , 0.118221946060658 , -0.097663640975952 , -0.158109530806541 , -0.231931254267693 , -0.058886449784041 , 0.376075267791748 , -0.210425704717636 , 0.096871033310890 , 0.002992027206346 , -0.071546196937561 , -0.004021621309221 , -0.158490002155304 , 0.002928655361757 , -0.011238148435950 , -0.152254864573479 , -0.178782194852829 , -0.214823469519615 , -0.405015677213669 , 0.047260329127312 , 0.439245700836182 , 0.061999857425690 , 0.412542909383774 , 0.085743449628353 , 0.074397765100002 , -0.020320361480117 , -0.089609898626804 , -0.021602863445878 , 0.033039715141058 , -0.291755706071854 , -0.279690623283386 , -0.314838439226151 , 0.016375459730625 , 0.218870267271996 , 0.498583137989044 , 0.177992343902588 , -0.101885743439198 , -0.100274406373501 , -0.039711620658636 , 0.140541031956673 , 0.057335067540407 , -0.019096203148365 , -0.135689511895180 , -0.144622191786766 , -0.193914845585823 , -0.214870497584343 , 0.207359373569489 , 0.315843850374222 , 0.227502152323723 , -0.189228713512421 , -0.088945679366589 , -0.067481152713299 , 0.050147358328104 , 0.066430412232876 , 0.032341439276934 , -0.015124956145883 , -0.245379239320755 , -0.035591501742601 , 0.162012562155724 , 0.384146630764008 , 0.347069323062897 , 0.433054387569428 , 0.343316495418549 , -0.218359082937241 , -0.369277149438858 , -0.090288028120995 , -0.029203034937382 , 0.093855783343315 , 0.074166186153889 , -0.044515289366245 , -0.068622194230557 , -0.031369484961033 , 0.055908761918545 , 0.131723552942276 , 0.218133330345154 , 0.377153247594833 , -0.156839579343796 , -0.216868460178375 , -0.074161581695080 , -0.087326101958752 , -0.009823574684560 , 0.115744769573212 , -0.024642778560519 , 0.082818150520325 , 0.061338540166616 , 0.020088106393814 , 0.090130582451820 , 0.091415517032147 , 0.083271272480488 , 0.046853683888912 , -0.131065964698792 , -0.107868187129498 , -0.095326669514179 , -0.126766666769981 , 0.049280181527138 , 0.074178218841553 , 0.090561784803867 , -0.080528527498245 , -0.041273072361946 , -0.023273330181837 , -0.054944161325693 , -0.056988887488842 , -0.039021078497171 , -0.027338206768036 , -0.228731215000153 , -0.043411694467068 , 0.087989151477814 , 0.020413979887962 , 0.235853299498558 , -0.045781232416630 , 0.076545663177967 , -0.102204389870167 , -0.040289577096701 , 0.071351654827595 , -0.077570967376232 , -0.028935166075826 , 0.000599843217060 , 0.080160580575466 , -0.078307099640369 , 0.072764225304127 , 0.051875099539757 , -0.044915404170752 , 0.057665996253491 , -0.076832339167595 , -0.067766658961773 , 0.120224192738533 , 0.030126843601465 , -0.049039978533983 , 0.006351777352393 , 0.015807282179594 , 0.092653602361679 , 0.047027334570885 , 0.116329073905945 , 0.127264484763145 , -0.002265887567773 , -0.068927377462387 , 0.121912121772766 , 0.021403977647424 , 0.118310660123825 , -0.083542466163635 , 0.075849562883377 , -0.008373884484172 , 0.049278188496828 , 0.160225719213486 , 0.063598126173019 , 0.061922956258059 , -0.022252880036831 , -0.005189995747060 , -0.049846142530441 , -0.036733504384756 , 0.093606747686863 , 0.048854026943445 , 0.055547125637531 , 0.105458468198776 , -0.061392299830914 , 0.033222645521164 , 0.109158232808113 , 0.021720100194216 , -0.015395972877741 , 0.045302201062441 , -0.120644502341747 , -0.080823354423046 , -0.147010385990143 , 0.090048588812351 , 0.100220218300819 , 0.059634417295456 , -0.062562651932240 , 0.132831320166588 , 0.054913789033890 , -0.057600844651461 , 0.000788976438344 , 0.180463284254074 , -0.026374088600278 , 0.135700374841690 , -0.044800855219364 , 0.002184176351875 , -0.054052770137787 , -0.041979372501373 , 0.053443081676960 , 0.082371473312378 , -0.019577320665121 , -0.053285814821720 , 0.136341467499733 , 0.076129302382469 , 0.017004383727908 , 0.293502748012543 , 0.314707875251770 , -0.127198621630669 , 0.177820131182671 , -0.020007871091366 , 0.111891567707062 , -0.074799865484238 , 0.136655911803246 , 0.023343211039901 , -0.145765379071236 , -0.120223402976990 , 0.126226052641869 , 0.182114049792290 , 0.014482597820461 , -0.140190660953522 , 0.139437824487686 , -0.289503931999207 , -0.180016010999680 , -0.140934988856316 , 0.110934905707836 , 0.012496011331677 , 0.127447217702866 , 0.094343088567257 , -0.023855861276388 , 0.088537365198135 , 0.024659041315317 , 0.130036965012550 , -0.343649148941040 , -0.179922178387642 , -0.186306327581406 , -0.324016690254211 , -0.172761231660843 , -0.069992400705814 , -0.027971126139164 , 0.107365377247334 , -0.024446645751596 , 0.113164901733398 , 0.047856763005257 , -0.051395099610090 , 0.133549824357033 , -0.092876210808754 , -0.226162701845169 , -0.414498805999756 , -0.185983702540398 , -0.171132117509842 , -0.119617059826851 , 0.094108119606972 , -0.054729998111725 , -0.111311316490173 , -0.122042611241341 , 0.053116694092751 , 0.015302449464798 , 0.066360250115395 , 0.016842147335410 , -0.026695266366005 , 0.161514565348625 , -0.019201848655939 , -0.071348659694195 , 0.167391613125801 , -0.128160744905472 , 0.007030693814158 , 0.132287368178368 , -0.112297341227531 , -0.184552684426308 , 0.035169299691916 , 0.073062345385552 , 0.068041838705540 , 0.048406995832920 , -0.000319043552736 , 0.167498618364334 , 0.078533031046391 , 0.177049249410629 , 0.250458747148514 , 0.086278274655342 , -0.099345654249191 , 0.035606015473604 , 0.127504795789719 , -0.013643149286509 , -0.090333260595799 , 0.000332832045387 , 0.048170104622841 , 0.152152538299561 , -0.020697126165032 , 0.035013213753700 , 0.101900815963745 , 0.100959487259388 , -0.014412460848689 , 0.107539758086205 , 0.144177302718163 , 0.009290752932429 , 0.042629010975361 , -0.055303659290075 , -0.140657424926758 , -0.101046219468117 , 0.047143306583166 , -0.036573100835085 , 0.025997281074524 , 0.030283482745290 , -0.064812399446964 , -0.088369838893414 , 0.053267221897841 , 0.028113137930632 , -0.062219750136137 , 0.073823988437653 , 0.072437234222889 , 0.034824401140213 , 0.005648734979331 , -0.030926667153835 , 0.026205137372017 , 0.124088622629642 , -0.089600116014481 , -0.032158039510250 , -0.052977390587330 , 0.070315860211849 , -0.013560230843723 , 0.064630150794983 , -0.032152444124222 , 0.075574636459351 , 0.001852972200140 , -0.007015616167337 , -0.060952700674534 , -0.026120064780116 ,
		0.169135913252831 , -0.015912836417556 , 0.093399830162525 , -0.035285837948322 , -0.008908654563129 , -0.108964487910271 , 0.110653646290302 , -0.111449092626572 , -0.028415879234672 , -0.069045178592205 , 0.020134348422289 , 0.040424581617117 , -0.074773766100407 , 0.043663553893566 , -0.094714447855949 , 0.031600773334503 , -0.053866069763899 , 0.078849837183952 , 0.049549218267202 , -0.102105282247067 , -0.238528802990913 , 0.102792173624039 , 0.059512346982956 , 0.055739343166351 , -0.026669563725591 , -0.081245489418507 , -0.097891561686993 , 0.142162576317787 , -0.093592666089535 , 0.028271464630961 , -0.053935769945383 , 0.079832039773464 , 0.047617014497519 , 0.076509557664394 , -0.164595171809196 , -0.044834595173597 , 0.073634408414364 , 0.199597612023354 , 0.044382002204657 , -0.009922844357789 , -0.136948376893997 , -0.080524571239948 , -0.061680063605309 , 0.128826722502708 , -0.005223223939538 , 0.106142811477184 , 0.048593737185001 , 0.135837584733963 , -0.104015223681927 , -0.044492136687040 , -0.129223719239235 , 0.098332434892654 , -0.142889916896820 , -0.067868269979954 , -0.125272616744041 , 0.021296139806509 , -0.033238664269447 , 0.095326490700245 , -0.029159752652049 , -0.187812119722366 , 0.003829960711300 , 0.064294539391995 , 0.068259380757809 , 0.354957520961761 , -0.022539459168911 , 0.205785006284714 , 0.063963048160076 , 0.027027193456888 , 0.133656546473503 , -0.078744649887085 , 0.021671948954463 , 0.024430006742477 , 0.045731298625469 , -0.095857404172421 , 0.190621569752693 , -0.290699690580368 , -0.098025836050510 , -0.069034248590469 , 0.281192272901535 , 0.211274906992912 , -0.014648760668933 , 0.152014955878258 , 0.272771000862122 , -0.055639516562223 , 0.125022262334824 , -0.088747866451740 , 0.055949181318283 , -0.167891025543213 , -0.481128245592117 , -0.431389331817627 , 0.545084178447723 , 0.015195840038359 , -0.277924567461014 , 0.213354617357254 , 0.125566825270653 , 0.110648944973946 , 0.057412963360548 , -0.065502651035786 , 0.208920478820801 , -0.028393670916557 , 0.069436207413673 , -0.108433626592159 , -0.436740994453430 , 0.210407510399818 , 0.246997028589249 , -0.058986984193325 , 0.149927228689194 , -0.012910518795252 , 0.160283371806145 , 0.006148577202111 , -0.046676367521286 , 0.217540338635445 , 0.170010432600975 , 0.160259425640106 , -0.049123078584671 , 0.041857615113258 , 0.074828974902630 , 0.376605063676834 , 0.309509992599487 , -0.406837344169617 , 0.387415409088135 , -0.004891510587186 , -0.140303149819374 , 0.026747277006507 , -0.025096479803324 , 0.160700008273125 , 0.156216412782669 , 0.007460421416909 , -0.133616939187050 , -0.023207044228911 , 0.091624513268471 , -0.321141511201859 , -0.218585118651390 , -0.082004427909851 , 0.092891462147236 , -0.264473915100098 , -0.110623717308044 , 0.100567378103733 , 0.111161150038242 , 0.065996885299683 , -0.035870615392923 , 0.269337654113770 , 0.109181538224220 , 0.027084907516837 , 0.102582149207592 , -0.221826314926147 , -0.174654200673103 , -0.186018541455269 , -0.213222235441208 , 0.100170083343983 , 0.184452608227730 , 0.036515764892101 , 0.047135204076767 , -0.047269076108933 , 0.065178111195564 , 0.200549736618996 , 0.175823733210564 , 0.131540790200233 , 0.183119371533394 , -0.041140865534544 , 0.001153521705419 , 0.024898521602154 , -0.110932014882565 , -0.004270580131561 , 0.059375617653132 , 0.223141700029373 , 0.094788335263729 , 0.116694122552872 , -0.032975122332573 , 0.026647983118892 , 0.089929565787315 , 0.267128139734268 , 0.044454373419285 , -0.000683971971739 , -0.156218171119690 , -0.229959517717361 , 0.039084415882826 , 0.196811839938164 , 0.159236103296280 , 0.112680874764919 , -0.027010422199965 , 0.041384819895029 , -0.015656890347600 , -0.117307372391224 , 0.002912838710472 , 0.087649777531624 , 0.189977198839188 , 0.054017335176468 , -0.272247850894928 , -0.431180030107498 , -0.015108050778508 , -0.010768949054182 , 0.018576478585601 , 0.031763322651386 , -0.126868724822998 , -0.057487778365612 , -0.089306890964508 , -0.088840238749981 , -0.111583791673183 , -0.007432585582137 , -0.031597189605236 , -0.127302363514900 , -0.084843754768372 , 0.046578418463469 , 0.010987892746925 , 0.152701184153557 , -0.001324077486061 , 0.075930505990982 , -0.080999076366425 , -0.230378791689873 , -0.041288167238236 , 0.111382670700550 , 0.122116953134537 , 0.244531020522118 , 0.082756228744984 , -0.058172531425953 , -0.283968091011047 , 0.107693545520306 , -0.104718402028084 , -0.070946902036667 , 0.023438433185220 , 0.087352961301804 , -0.098549403250217 , -0.048482090234757 , 0.029713647440076 , 0.074561126530170 , 0.099115386605263 , 0.029189875349402 , -0.089380107820034 , -0.146482989192009 , -0.251472860574722 , -0.157553791999817 , -0.239149257540703 , -0.034034904092550 , -0.025832675397396 , -0.066879786550999 , -0.128918647766113 , -0.074602931737900 , 0.017536463215947 , 0.022202149033546 , -0.055646896362305 , -0.120048671960831 , -0.210411250591278 , 0.196340352296829 , -0.078786268830299 , -0.191249683499336 , -0.059725597500801 , -0.136924386024475 , 0.104668959975243 , -0.033567816019058 , 0.093220718204975 , -0.166520819067955 , -0.011845569126308 , -0.012135219760239 , -0.133869051933289 , -0.274341672658920 , -0.228876277804375 , -0.166051492094994 , 0.295250713825226 , -0.041296452283859 , -0.078137733042240 , -0.043858017772436 , 0.197427302598953 , -0.028828028589487 , 0.140740603208542 , -0.048603273928165 , 0.025394624099135 , -0.078184388577938 , -0.025869362056255 , 0.001651861472055 , -0.004019241314381 , -0.482525110244751 , -0.018917441368103 , 0.217985600233078 , 0.092572450637817 , 0.125408485531807 , 0.102257609367371 , 0.180025160312653 , 0.145544856786728 , 0.020820824429393 , -0.078513167798519 , -0.049230385571718 , 0.026815839111805 , 0.089752383530140 , -0.117259837687016 , -0.346176505088806 , 0.383857280015945 , 0.510964095592499 , 0.195635080337524 , 0.231599673628807 , 0.178376331925392 , 0.252828508615494 , 0.025796487927437 , 0.011078372597694 , -0.107117593288422 , 0.133886858820915 , -0.080536752939224 , -0.047105859965086 , -0.240697875618935 , -0.129507079720497 , 0.510894417762756 , 0.196328416466713 , 0.442752182483673 , 0.063891284167767 , 0.469925552606583 , -0.018267482519150 , 0.114439323544502 , 0.061405405402184 , 0.035884678363800 , 0.133517101407051 , 0.185938909649849 , -0.037578850984573 , -0.269752621650696 , -0.008163517341018 , 0.469155669212341 , 0.180574864149094 , 0.371354490518570 , 0.177898854017258 , 0.118027038872242 , -0.043691553175449 , 0.220922663807869 , 0.005705304443836 , 0.070323795080185 , -0.017601670697331 , -0.008376415818930 , 0.086447715759277 , -0.176729843020439 , -0.023952234536409 , 0.201870948076248 , 0.026535548269749 , 0.128031492233276 , 0.434683620929718 , 0.167560845613480 , -0.077991478145123 , 0.134991109371185 , 0.095417246222496 , -0.084902629256249 , -0.054857101291418 , 0.029863884672523 , -0.077223494648933 , 0.037196036428213 , -0.164168879389763 , -0.339987367391586 , -0.197607085108757 , 0.032582875341177 , -0.011950897052884 , 0.062087852507830 , 0.018395822495222 , -0.001543925027363 , -0.019964290782809 , -0.015073582530022 , -0.111005082726479 , -0.022894034162164 , -0.007076639216393 , -0.034286282956600 , -0.340295791625977 , -0.572313725948334 , -0.318763136863708 , -0.279212892055511 , 0.065050721168518 , -0.006735392846167 , 0.002189848339185 , -0.021693352609873 , 0.046600744128227 , -0.119066454470158 , -0.004565408919007 , 0.124619297683239 , -0.021322555840015 , -0.081779025495052 , -0.171528384089470 , -0.316173285245895 , -0.077880620956421 , 0.208804309368134 , 0.114200018346310 , -0.021205471828580 , -0.097670055925846 , -0.145504802465439 , -0.039263762533665 , 0.016131907701492 , 0.050811775028706 , 0.016642635688186 , -0.251320481300354 , -0.061071779578924 , -0.016722770407796 , -0.213682383298874 , 0.042248886078596 , 0.023425150662661 , 0.131614819169045 , 0.013908211141825 , -0.035406675189734 , -0.106135204434395 , -0.085702002048492 , 0.124422535300255 , 0.038923207670450 , -0.049552656710148 , -0.080519579350948 , 0.029088942334056 , 0.073294825851917 , -0.084278509020805 , -0.082094386219978 , -0.043830893933773 , 0.039915859699249 , 0.030828095972538 , -0.056395813822746 , 0.022105384618044 , 0.033393163233995 , 0.005962683353573 , 0.000100916353404 , 0.025292985141277 , 0.077898889780045 , 0.034564707428217 , 0.035690855234861 , -0.011926484294236 , -0.050468325614929 , -0.087341375648975 , 0.034422926604748 , -0.000907066743821 , 0.008745305240154 , -0.174020200967789 , -0.003390130354092 , 0.023774592205882 , 0.009262188337743 , 0.112956255674362 , -0.063145294785500 , 0.111600838601589 , 0.056345004588366 , 0.032314121723175 , -0.050094988197088 , -0.078339539468288 , -0.128258064389229 , 0.050420530140400 , 0.071892589330673 , -0.123155586421490 , -0.181797727942467 , -0.042382325977087 , 0.017403399571776 , 0.017579032108188 , 0.191551133990288 , 0.113061740994453 , 0.127237722277641 , 0.072925828397274 , -0.045155413448811 , 0.005590509157628 , 0.025223491713405 , -0.088717930018902 , 0.139995604753494 , 0.056350518018007 , -0.051694035530090 , 0.160691395401955 , -0.051252394914627 , 0.051561258733273 , -0.119885973632336 , -0.161679446697235 , -0.022220754995942 , 0.234834372997284 , 0.138494327664375 , -0.025095451623201 , -0.035858646035194 , -0.033924821764231 , -0.022818766534329 , -0.029963281005621 , -0.109175458550453 , -0.023674648255110 , -0.003473293036222 , -0.034056562930346 , 0.100053258240223 , 0.425672888755798 , 0.328732222318649 , -0.063903860747814 , 0.175366133451462 , 0.128743737936020 , 0.062842682003975 , 0.003214030759409 , -0.181923612952232 , -0.058781627565622 , -0.008275700733066 , -0.152644485235214 , 0.003812729613855 , 0.039330296218395 , 0.154130741953850 , 0.449128657579422 , 0.460226744413376 , 0.680470049381256 , 0.213229611515999 , 0.248045235872269 , -0.006185365375131 , -0.023655546829104 , -0.205702707171440 , -0.207485228776932 , -0.058889094740152 , 0.008343245834112 , -0.006283988710493 , -0.001688532764092 , -0.378400117158890 , -0.308290213346481 , -0.185163885354996 , 0.286368936300278 , 0.342658311128616 , 0.192560330033302 , -0.088942766189575 , -0.084203809499741 , -0.051165889948607 , -0.293250858783722 , -0.159275203943253 , -0.041478659957647 , -0.031535282731056 , 0.033540550619364 , -0.262263089418411 , -0.589471101760864 , -0.093925550580025 , -0.040249582380056 , 0.074342742562294 , -0.320838332176208 , -0.077620789408684 , -0.115513227880001 , -0.018417920917273 , -0.067290976643562 , 0.062005683779717 , 0.037898518145084 , -0.061257347464562 , -0.055901750922203 , 0.009727939963341 , 0.110986642539501 , -0.156896278262138 , -0.127083003520966 , 0.330069571733475 , 0.188766762614250 , 0.166559725999832 , -0.042527403682470 , -0.084065668284893 , -0.054767504334450 , -0.031886108219624 , -0.115614198148251 , 0.077640734612942 , 0.077204622328281 , 0.007410286925733 , 0.121743820607662 , -0.113402009010315 , -0.306651204824448 , 0.051176767796278 , 0.233649805188179 , 0.080225735902786 , 0.025900887325406 , -0.018115695565939 , 0.055385239422321 , -0.066025637090206 , 0.003198588499799 , 0.112799264490604 , 0.080383971333504 , 0.030734270811081 , 0.075786687433720 , -0.061903793364763 , -0.165539681911469 , -0.185719281435013 , -0.007944009266794 , -0.044553004205227 , 0.152377367019653 , 0.080945223569870 , 0.009313979186118 , -0.002346942434087 , -0.013374367728829 , -0.062633194029331 , 0.099679499864578 , 0.130858138203621 , -0.031672943383455 , -0.019463479518890 , 0.015332345850766 , -0.103574767708778 , -0.116651818156242 , -0.029283110052347 , -0.034934699535370 , 0.072303563356400 , -0.029788808897138 , -0.007950173690915 , -0.116469010710716 , 0.029307818040252 , -0.022349542006850 , 0.049677498638630 , 0.029830927029252 , -0.069953687489033 , 0.083880245685577 , 0.003886183723807 , 0.041037283837795 , -0.060168839991093 , 0.027985485270619 , 0.037897832691670 , 0.002166604157537 , -0.006679097190499 ,
		-0.173122480511665 , -0.191611707210541 , -0.080173857510090 , 0.034155350178480 , 0.125562861561775 , 0.033646658062935 , 0.052659008651972 , -0.037287440150976 , -0.105014123022556 , -0.057094439864159 , 0.136804476380348 , -0.122563667595387 , -0.244289413094521 , -0.008519112132490 , 0.033793237060309 , -0.003511607181281 , 0.106763102114201 , 0.078726314008236 , 0.035079587250948 , 0.050664771348238 , -0.028905920684338 , 0.039851367473602 , 0.146976783871651 , -0.039185225963593 , 0.024061720818281 , -0.170024022459984 , -0.041047323495150 , 0.065960370004177 , 0.003367962548509 , -0.049898125231266 , 0.145379543304443 , 0.140823960304260 , 0.031752292066813 , -0.034776732325554 , -0.034509085118771 , 0.105649210512638 , -0.000840670196339 , -0.049326781183481 , 0.108936950564384 , 0.163557618856430 , -0.065681271255016 , 0.050425522029400 , 0.131046310067177 , 0.083751320838928 , 0.143560558557510 , -0.067171335220337 , 0.050124462693930 , -0.148575171828270 , 0.400931805372238 , 0.110967360436916 , -0.301837414503098 , -0.059055630117655 , 0.055406253784895 , 0.178540065884590 , 0.174243554472923 , -0.021314885467291 , 0.045654337853193 , -0.063571840524674 , 0.101008094847202 , -0.002539225621149 , 0.098435193300247 , 0.308189630508423 , 0.353537172079086 , -0.497586220502853 , -0.134111359715462 , -0.037626825273037 , -0.054756060242653 , 0.179841905832291 , -0.032165821641684 , -0.037569306790829 , 0.002649631118402 , -0.127728655934334 , 0.019335281103849 , -0.078455306589603 , 0.232509464025497 , 0.488473385572434 , 0.268284201622009 , -0.208185300230980 , -0.129320591688156 , -0.246264562010765 , 0.020333794876933 , 0.007216338999569 , 0.111454799771309 , 0.020464131608605 , -0.000884673674591 , -0.120836578309536 , 0.068395465612412 , 0.214217737317085 , 0.285697340965271 , 0.262517064809799 , -0.643083751201630 , 0.094113945960999 , 0.269748330116272 , -0.052920710295439 , 0.159355700016022 , 0.037673931568861 , -0.078418314456940 , 0.148767739534378 , 0.065405771136284 , -0.004323282744735 , 0.215309590101242 , 0.163191407918930 , 0.130441650748253 , 0.238081529736519 , -0.036745518445969 , 0.125959619879723 , -0.132785469293594 , -0.189815446734428 , -0.224551364779472 , 0.058680977672339 , 0.040986869484186 , -0.044015586376190 , -0.021198309957981 , -0.083592027425766 , 0.086146011948586 , 0.050505612045527 , -0.218437954783440 , -0.101478509604931 , -0.213138997554779 , 0.079171143472195 , -0.087048120796681 , 0.087515652179718 , 0.022447546944022 , -0.211323872208595 , 0.036016773432493 , 0.067209556698799 , 0.025401093065739 , 0.047913938760757 , -0.066937617957592 , -0.164036497473717 , -0.221501857042313 , 0.013538530096412 , 0.237524226307869 , -0.071019470691681 , 0.235701367259026 , 0.079657852649689 , -0.209124729037285 , -0.067192628979683 , 0.076296471059322 , 0.012215545400977 , 0.064272679388523 , 0.083438239991665 , 0.001944606890902 , -0.129473447799683 , -0.086698628962040 , 0.168959841132164 , 0.203016385436058 , 0.152740314602852 , -0.093332700431347 , 0.023073947057128 , -0.094992160797119 , 0.124572195112705 , 0.056392412632704 , 0.098287455737591 , 0.118847832083702 , 0.047395944595337 , -0.003976205363870 , 0.115405470132828 , 0.118114754557610 , 0.018999930471182 , 0.055419988930225 , 0.107532322406769 , -0.165104314684868 , 0.084747985005379 , 0.092396192252636 , -0.016730746254325 , 0.007383609656245 , 0.013670555315912 , 0.033357366919518 , -0.036465574055910 , 0.017673863098025 , 0.034752126783133 , 0.210206031799316 , 0.160350844264030 , 0.049937941133976 , 0.045185662806034 , -0.084619820117950 , -0.014577906578779 , -0.055264756083489 , -0.078651964664459 , 0.037642829120159 , -0.171836137771606 , -0.027350749820471 , -0.084748506546021 , 0.011750134639442 , -0.060691371560097 , 0.130343124270439 , 0.159540489315987 , 0.084272220730782 , 0.103311248123646 , -0.229533270001411 , -0.079116731882095 , -0.177613914012909 , -0.089631795883179 , 0.116266325116158 , 0.094102993607521 , -0.029500434175134 , 0.034094382077456 , 0.062589682638645 , 0.081631742417812 , 0.101759679615498 , -0.020606901496649 , 0.053804926574230 , -0.275784373283386 , 0.078498482704163 , 0.004559207241982 , -0.018317479640245 , -0.078815281391144 , 0.151872888207436 , 0.063812002539635 , 0.052858833223581 , 0.043773800134659 , 0.013085622340441 , -0.141358569264412 , 0.013311375863850 , 0.107304744422436 , 0.049798239022493 , -0.081906974315643 , -0.038840107619762 , -0.105305217206478 , 0.004876191262156 , 0.058381229639053 , 0.085177443921566 , -0.015126906335354 , -0.078281082212925 , 0.058206215500832 , -0.058096658438444 , -0.036363851279020 , 0.115967273712158 , 0.195878341794014 , 0.263190150260925 , 0.136088252067566 , 0.060024246573448 , -0.172430127859116 , -0.115500643849373 , 0.025283079594374 , 0.092619940638542 , 0.055969309061766 , -0.086445838212967 , 0.034032471477985 , 0.054903350770474 , -0.021770186722279 , 0.032398667186499 , -0.106162719428539 , 0.244504421949387 , 0.245007440447807 , 0.028812879696488 , -0.068945825099945 , -0.095013685524464 , -0.033876318484545 , -0.070077665150166 , -0.009820687584579 , 0.119249574840069 , 0.049367729574442 , 0.153004199266434 , -0.157988488674164 , 0.118982635438442 , 0.232615545392036 , 0.189079180359840 , 0.119181618094444 , 0.107024975121021 , 0.145436108112335 , -0.126747325062752 , 0.133068263530731 , 0.153681248426437 , 0.233906775712967 , -0.055245328694582 , 0.005279503762722 , 0.015583327040076 , -0.052755434066057 , 0.165302768349648 , 0.505026102066040 , 0.226947128772736 , 0.077511794865131 , 0.019232021644712 , -0.154104217886925 , 0.130547314882278 , 0.143254116177559 , 0.135723859071732 , 0.184222340583801 , -0.058313921093941 , -0.007840451784432 , -0.025050805881620 , 0.050058580935001 , 0.272506862878799 , 0.256593167781830 , 0.028975281864405 , -0.437087923288345 , 0.326333850622177 , -0.121066823601723 , 0.050608579069376 , 0.097569487988949 , 0.134332031011581 , 0.095714300870895 , 0.109800130128860 , 0.009468313306570 , 0.183527544140816 , 0.166034445166588 , 0.273102194070816 , 0.195108726620674 , -0.253413110971451 , -0.120987810194492 , -0.105842895805836 , -0.403721511363983 , -0.043703645467758 , 0.091933868825436 , 0.032106492668390 , -0.040986668318510 , 0.001812604954466 , -0.008501589298248 , 0.205234438180923 , 0.328947454690933 , 0.397546529769897 , -0.003063410520554 , -0.197670370340347 , -0.508378922939301 , -0.158149078488350 , 0.012213508598507 , 0.050345171242952 , 0.003921560011804 , -0.029410718008876 , -0.183158993721008 , 0.001403133850545 , 0.198700323700905 , 0.215378239750862 , 0.185636341571808 , 0.227586165070534 , -0.193772777915001 , -0.126856118440628 , -0.078610770404339 , 0.158361971378326 , 0.068993046879768 , 0.039996024221182 , 0.002052444731817 , -0.014111111871898 , 0.031829569488764 , 0.046998478472233 , 0.242925152182579 , 0.063742555677891 , -0.041635803878307 , -0.132001057267189 , -0.075018301606178 , -0.209858745336533 , -0.133125856518745 , -0.000796522828750 , 0.362228751182556 , 0.223171561956406 , 0.045164603739977 , -0.066117092967033 , 0.131243854761124 , 0.150220334529877 , 0.082148201763630 , 0.123655706644058 , 0.013844895176590 , -0.149315878748894 , -0.132298991084099 , 0.013783213682473 , 0.284726381301880 , 0.235279679298401 , 0.253979474306107 , 0.001021051313728 , -0.046930894255638 , 0.073949515819550 , -0.078410550951958 , 0.079767338931561 , -0.037857927381992 , -0.056088935583830 , -0.001520752906799 , -0.051272038370371 , -0.047126375138760 , 0.084682174026966 , 0.172692179679871 , -0.012496589682996 , -0.073884472250938 , 0.123815454542637 , 0.020573612302542 , 0.088981024920940 , -0.048215482383966 , 0.037528764456511 , 0.024899933487177 , 0.023800093680620 , 0.107174143195152 , 0.041135236620903 , 0.076789893209934 , 0.102746330201626 , 0.277628093957901 , 0.051867607980967 , -0.044144716113806 , -0.118903979659081 , -0.180074438452721 , -0.045400481671095 , -0.068910948932171 , -0.009428761899471 , -0.072180651128292 , -0.024166256189346 , 0.116161160171032 , -0.043715778738260 , 0.048680275678635 , 0.004743751604110 , 0.048413153737783 , -0.003498636884615 , -0.032259475439787 , -0.061093728989363 , 0.113495312631130 , 0.088827930390835 , -0.006878829561174 , -0.013813953846693 , 0.043188322335482 , 0.073113739490509 , -0.026530891656876 , -0.011725274845958 , -0.086612783372402 , 0.012428172864020 , 0.146013706922531 , 0.045297145843506 , 0.056811779737473 , 0.009350951761007 , -0.001977950567380 , -0.046763479709625 , -0.055060826241970 , -0.013866704888642 , 0.091883346438408 , 0.029050327837467 , 0.021444598212838 , -0.161947205662727 , 0.061828169971705 , 0.111262381076813 , -0.050794407725334 , -0.017656560987234 , 0.093460656702519 , 0.073728568851948 , 0.105318129062653 , 0.006673661526293 , 0.084250710904598 , 0.055302184075117 , 0.038136471062899 , 0.062159501016140 , -0.043536204844713 , -0.023511154577136 , 0.036113396286964 , -0.017388278618455 , 0.044091142714024 , 0.167417183518410 , 0.087404690682888 , -0.061469156295061 , 0.039306834340096 , 0.042703613638878 , 0.099621206521988 , -0.110964864492416 , -0.061989039182663 , -0.000366920256056 , -0.085944309830666 , -0.105813071131706 , -0.083390720188618 , -0.047557089477778 , -0.038687020540237 , 0.032794710248709 , 0.098724052309990 , 0.013929351232946 , -0.003558758879080 , 0.071421682834625 , 0.018103389069438 , -0.019034376367927 , -0.014926986768842 , -0.024348260834813 , -0.072731725871563 , -0.377200752496719 , -0.254311978816986 , 0.162744656205177 , 0.018692176789045 , 0.139604210853577 , -0.089616775512695 , 0.053717222064734 , -0.172097593545914 , 0.078875906765461 , 0.212445169687271 , 0.036188594996929 , 0.062905780971050 , -0.167215198278427 , 0.031134430319071 , 0.020679082721472 , -0.362895637750626 , -0.166727796196938 , 0.163575083017349 , 0.128734320402145 , 0.010735468938947 , -0.058313380926848 , 0.029403839260340 , 0.056181240826845 , 0.031033337116242 , -0.002628964837641 , 0.005995191633701 , -0.116497114300728 , 0.310955971479416 , 0.339234054088593 , 0.471265941858292 , 0.175369262695313 , -0.049674432724714 , -0.038774050772190 , 0.067010730504990 , 0.009429945610464 , -0.003931131679565 , -0.032866295427084 , -0.051937334239483 , -0.057343527674675 , 0.081407979130745 , -0.019159192219377 , 0.093394376337528 , 0.266317397356033 , 0.082066982984543 , 0.130583778023720 , 0.177889749407768 , 0.099953331053257 , -0.051596194505692 , 0.086329743266106 , 0.138127833604813 , 0.081687889993191 , 0.062342472374439 , 0.032920300960541 , 0.002540800021961 , 0.058394230902195 , -0.194612622261047 , -0.010923490859568 , 0.088583283126354 , -0.132190197706223 , 0.051928956061602 , -0.018557226285338 , 0.080400653183460 , 0.091757297515869 , 0.007064898032695 , 0.073879525065422 , 0.119791589677334 , 0.109245747327805 , 0.083223067224026 , 0.039939247071743 , -0.085851535201073 , -0.114477097988129 , 0.121502816677094 , -0.012400180101395 , -0.125075340270996 , 0.143377959728241 , -0.017361303791404 , -0.156775280833244 , -0.065788023173809 , -0.029654262587428 , 0.114350609481335 , 0.151172399520874 , -0.025366716086865 , 0.056227285414934 , 0.032656598836184 , 0.012261815369129 , -0.160211160778999 , -0.084067575633526 , -0.066344611346722 , -0.075710654258728 , -0.005690288264304 , -0.005332669708878 , 0.049419376999140 , 0.080746389925480 , 0.025985788553953 , 0.142090708017349 , 0.029718158766627 , 0.007433983962983 , 0.066250041127205 , 0.112186320126057 , 0.089380830526352 , 0.094676300883293 , 0.080063037574291 , 0.108231961727142 , 0.044229730963707 , 0.015553841367364 , 0.053117576986551 , 0.103689037263393 , 0.123486950993538 , -0.051959455013275 , 0.014558712020516 , -0.032467842102051 , -0.022579010576010 , -0.061477296054363 , -0.082955561578274 , -0.082326725125313 , 0.015391569584608 , -0.111539214849472 , -0.032794129103422 , -0.010691909119487 , -0.050303064286709 , 0.043926373124123 , 0.017176780849695 ,
		-0.161609649658203 , -0.063746474683285 , 0.017979267984629 , -0.014123135246337 , 0.004738717805594 , 0.028945695608854 , 0.128974348306656 , 0.053917318582535 , -0.176864892244339 , -0.232020810246468 , -0.010749345645309 , 0.059704020619392 , -0.049240555614233 , 0.004330063238740 , 0.146566987037659 , 0.174669906497002 , 0.079975865781307 , 0.065241888165474 , 0.105699621140957 , 0.012178077362478 , 0.103220410645008 , 0.167810589075089 , 0.108194172382355 , 0.027419969439507 , 0.080823145806789 , -0.030744146555662 , -0.031121719628573 , -0.073302611708641 , 0.014966215938330 , 0.011780835688114 , -0.037142667919397 , 0.006233101710677 , 0.016780411824584 , -0.146727710962296 , 0.088694453239441 , 0.122794412076473 , 0.006014499813318 , -0.127921923995018 , -0.021556416526437 , 0.204605668783188 , -0.024140508845449 , 0.018242577090859 , 0.056085441261530 , -0.004155803471804 , 0.114594541490078 , -0.056784857064486 , 0.002661736449227 , -0.140566155314446 , 0.126733720302582 , 0.091824434697628 , -0.304999887943268 , -0.122682146728039 , -0.021116811782122 , 0.071099489927292 , 0.076115660369396 , -0.122421957552433 , 0.142434656620026 , 0.112970158457756 , 0.221918016672134 , 0.121615871787071 , 0.233276620507240 , -0.192214325070381 , 0.493195742368698 , 0.136192068457603 , -0.151022464036942 , -0.255423575639725 , -0.080860950052738 , 0.250531405210495 , -0.091439008712769 , 0.220675200223923 , 0.039912197738886 , 0.116943538188934 , -0.109805226325989 , 0.066180296242237 , 0.388795942068100 , 0.078512646257877 , -0.278080374002457 , -0.483859300613403 , -0.336228311061859 , -0.264010816812515 , 0.203780278563499 , 0.077341482043266 , 0.174282819032669 , 0.047218665480614 , -0.009680302813649 , 0.004247260745615 , -0.137281566858292 , 0.013497054576874 , 0.181495651602745 , -0.122552670538425 , -0.514389932155609 , -0.342565476894379 , -0.312722384929657 , 0.022043963894248 , 0.385445803403854 , 0.033596046268940 , -0.044154342263937 , 0.059262052178383 , -0.050867095589638 , 0.015889812260866 , -0.049677450209856 , 0.227735474705696 , -0.012416688725352 , 0.486698061227798 , -0.370095878839493 , -0.520213782787323 , -0.151658013463020 , -0.034608732908964 , -0.035384070128202 , 0.121332481503487 , 0.084017112851143 , 0.036711305379868 , -0.072164438664913 , -0.045097388327122 , 0.028183991089463 , -0.082293227314949 , -0.234937459230423 , 0.267843067646027 , -0.559839129447937 , -0.506931662559509 , 0.218378126621246 , 0.253523051738739 , 0.174394562840462 , 0.005660309921950 , -0.186652943491936 , 0.095113702118397 , -0.048073295503855 , 0.020789681002498 , -0.117267109453678 , -0.044105354696512 , -0.290656030178070 , -0.515176296234131 , 0.188723817467690 , 0.389620274305344 , 0.234921112656593 , 0.166346907615662 , -0.196601912379265 , -0.095027700066567 , -0.074146553874016 , 0.086787305772305 , -0.039867252111435 , -0.093260154128075 , 0.050158638507128 , 0.031174445524812 , -0.166475683450699 , 0.223191678524017 , 0.128939330577850 , -0.105871126055717 , 0.046132020652294 , 0.075837790966034 , -0.101963765919209 , -0.002261839807034 , 0.123175144195557 , 0.125629350543022 , 0.171557858586311 , 0.071846984326840 , 0.054442971944809 , 0.045967139303684 , -0.107438288629055 , 0.005939227063209 , 0.221872195601463 , 0.187108919024467 , -0.125221788883209 , -0.148507192730904 , -0.025487072765827 , 0.112227797508240 , 0.077424250543118 , 0.038502346724272 , 0.087370522320271 , -0.044358588755131 , 0.140177279710770 , 0.149333462119102 , 0.119372114539146 , 0.163003608584404 , -0.039736852049828 , 0.037222046405077 , -0.035405699163675 , 0.058244038373232 , 0.047088347375393 , -0.042368803173304 , -0.055673610419035 , 0.028821611776948 , -0.081748627126217 , -0.131219908595085 , 0.028976913541555 , 0.217128813266754 , 0.064455792307854 , -0.073147974908352 , 0.021175801753998 , 0.249370992183685 , -0.068309888243675 , 0.001505297143012 , -0.112041138112545 , -0.019353454932571 , -0.045514799654484 , 0.077450580894947 , -0.095517851412296 , -0.037829287350178 , -0.074515424668789 , -0.088889420032501 , 0.055342800915241 , 0.104581564664841 , -0.134664908051491 , -0.042771019041538 , 0.103799462318420 , 0.130328327417374 , 0.159467622637749 , 0.026032123714685 , 0.003571056062356 , 0.230081155896187 , 0.083698213100433 , 0.141490772366524 , 0.014298754744232 , 0.015425493940711 , 0.024199688807130 , 0.079575963318348 , 0.004390799906105 , -0.020709814503789 , -0.010565601289272 , 0.018129587173462 , 0.033854916691780 , 0.073502786457539 , 0.005846093874425 , -0.002489394508302 , 0.054379396140575 , -0.030733373016119 , -0.044719081372023 , 0.082851164042950 , 0.076261527836323 , 0.061258755624294 , 0.220647245645523 , 0.157416999340057 , 0.142974555492401 , -0.085410311818123 , -0.035745661705732 , 0.097100764513016 , 0.068443514406681 , 0.166225448250771 , 0.001672425772995 , 0.105823911726475 , 0.116196088492870 , 0.085747256875038 , 0.264808923006058 , -0.117311805486679 , -0.064409770071507 , 0.255444228649139 , 0.346051633358002 , -0.053273573517799 , -0.044348523020744 , 0.060195449739695 , 0.122039414942265 , 0.092519931495190 , 0.063425265252590 , 0.043948423117399 , 0.144735693931580 , 0.052358161658049 , -0.025085860863328 , 0.030550030991435 , -0.284775942564011 , 0.155439510941505 , 0.051568429917097 , 0.098306342959404 , -0.177326858043671 , 0.042337968945503 , 0.079971805214882 , 0.135351151227951 , 0.064744114875794 , -0.010938107036054 , 0.127759963274002 , -0.127095147967339 , 0.026391724124551 , 0.417503893375397 , -0.388276547193527 , 0.150802716612816 , -0.079045183956623 , -0.029485311359167 , -0.035575699061155 , -0.061927117407322 , 0.088260717689991 , 0.172857314348221 , -0.003492658957839 , -0.079110339283943 , 0.119483053684235 , -0.005561145488173 , 0.156973436474800 , 0.318153828382492 , 0.013671675696969 , -0.335813760757446 , -0.044065959751606 , -0.092590048909187 , -0.013600740581751 , 0.205832287669182 , 0.052532248198986 , 0.111612215638161 , 0.002842651214451 , 0.100404538214207 , 0.148924082517624 , 0.048420000821352 , -0.121174015104771 , 0.282590299844742 , 0.045278750360012 , -0.417723536491394 , 0.031926639378071 , -0.384121209383011 , -0.112912438809872 , 0.207128599286079 , 0.041802212595940 , 0.034842066466808 , 0.022005598992109 , -0.079541362822056 , 0.143167942762375 , 0.206021413207054 , 0.195737749338150 , 0.013540259562433 , -0.185491010546684 , -0.391154021024704 , -0.114488571882248 , 0.111405774950981 , 0.284085452556610 , 0.103062570095062 , -0.110949985682964 , 0.019533216953278 , 0.011382207274437 , 0.134771659970284 , 0.170979812741280 , 0.128603562712669 , 0.378542542457581 , -0.034748662263155 , -0.293755501508713 , -0.377976566553116 , 0.244721114635468 , 0.089711278676987 , 0.152809873223305 , -0.011582612060010 , 0.013767723925412 , -0.033321566879749 , -0.088802084326744 , 0.113206624984741 , 0.037168562412262 , -0.134966671466827 , -0.258665621280670 , -0.137339338660240 , -0.217565000057220 , -0.324219614267349 , 0.288733422756195 , 0.480683505535126 , 0.125971481204033 , -0.024573521688581 , -0.148864641785622 , -0.055658437311649 , -0.011949944309890 , 0.184485733509064 , 0.042351145297289 , -0.092412926256657 , 0.091245956718922 , -0.127346038818359 , -0.029820943251252 , 0.316935241222382 , 0.206914424896240 , 0.232108086347580 , 0.213686123490334 , -0.067058600485325 , 0.012339768931270 , -0.108160890638828 , -0.052369616925716 , -0.021382167935371 , -0.078398495912552 , 0.124909482896328 , 0.076713442802429 , -0.053272161632776 , 0.032774366438389 , 0.355853557586670 , 0.077382557094097 , 0.115767970681191 , -0.000669553002808 , -0.101207703351974 , 0.129399731755257 , 0.030924709513784 , 0.095864623785019 , -0.077984437346458 , 0.079848863184452 , -0.052738454192877 , 0.236934244632721 , 0.153324589133263 , 0.063946694135666 , 0.252367168664932 , 0.139685615897179 , -0.097838506102562 , 0.046666350215673 , -0.195715680718422 , 0.109048530459404 , -0.019172042608261 , 0.022814176976681 , 0.049917452037334 , 0.032508596777916 , 0.075916856527329 , 0.084835320711136 , -0.059740915894508 , -0.009463183581829 , -0.069826170802116 , 0.122212104499340 , 0.082505919039249 , -0.054158028215170 , 0.020253423601389 , -0.060287907719612 , 0.028575299307704 , 0.004691207781434 , -0.001592209562659 , -0.026212554425001 , 0.059876840561628 , -0.002995036775246 , 0.039095863699913 , -0.111568234860897 , -0.012892703525722 , -0.063442759215832 , -0.021332653239369 , 0.050203781574965 , -0.095084756612778 , 0.110612846910954 , -0.006121168844402 , 0.081883631646633 , 0.092427007853985 , 0.077326975762844 , 0.019626637920737 , -0.079599782824516 , 0.075277402997017 , 0.134987026453018 , 0.089899741113186 , 0.062752358615398 , 0.080779902637005 , -0.091690637171269 , -0.064433291554451 , 0.093656547367573 , 0.050312273204327 , 0.006242751609534 , 0.095521792769432 , -0.101907059550285 , -0.033191692084074 , -0.126508444547653 , -0.003404178656638 , -0.062549874186516 , -0.023636976256967 , -0.013689020648599 , -0.083813786506653 , -0.022515686228871 , 0.006635054480284 , -0.023225210607052 , -0.029628979042172 , -0.059920240193605 , 0.063896678388119 , 0.017378592863679 , -0.107840135693550 , 0.051475204527378 , 0.133479788899422 , -0.141323044896126 , 0.050621680915356 , 0.084504008293152 , 0.149433001875877 , 0.018625160679221 , -0.061930105090141 , -0.087226793169975 , -0.053301546722651 , -0.034095384180546 , 0.047560077160597 , 0.049466378986836 , 0.117120191454887 , -0.236251652240753 , 0.004561240784824 , 0.319349765777588 , -0.016431234776974 , -0.011753829196096 , 0.127798259258270 , 0.119818150997162 , -0.023909593001008 , -0.019648510962725 , 0.153633385896683 , -0.021757913753390 , -0.063481934368610 , -0.032768476754427 , 0.048327766358852 , 0.127139821648598 , -0.060505140572786 , 0.434518218040466 , 0.215215459465981 , 0.083821594715118 , -0.106015205383301 , 0.064232990145683 , -0.053867403417826 , 0.069537937641144 , 0.053961496800184 , 0.112026363611221 , -0.035896949470043 , -0.017336735501885 , 0.233507484197617 , -0.062430653721094 , -0.166179850697517 , 0.295948594808578 , 0.328109443187714 , 0.238250777125359 , 0.053222782909870 , -0.077204726636410 , 0.029429515823722 , 0.093210831284523 , -0.032813068479300 , 0.093045689165592 , -0.014213603921235 , 0.026028005406261 , 0.297593921422958 , 0.334898054599762 , 0.107958033680916 , -0.192279979586601 , -0.010973035357893 , -0.128943279385567 , -0.056458164006472 , 0.007389735430479 , 0.113563746213913 , -0.024326210841537 , -0.008814305067062 , 0.141802042722702 , 0.071097344160080 , -0.060723498463631 , -0.199629068374634 , -0.106924310326576 , -0.076146535575390 , -0.221518442034721 , -0.163528829813004 , -0.057750858366489 , -0.036004494875670 , 0.121144518256187 , 0.074824467301369 , -0.032161105424166 , 0.001504309475422 , 0.024449864402413 , -0.080950886011124 , -0.016550641506910 , -0.104392953217030 , 0.027409974485636 , -0.244416296482086 , -0.349280327558517 , 0.019902545958757 , 0.175197690725327 , 0.078560732305050 , -0.164566248655319 , 0.006787430495024 , -0.082270890474320 , 0.003417023457587 , 0.114977523684502 , -0.043929036706686 , -0.007956049405038 , 0.091490581631661 , 0.032863322645426 , 0.020663518458605 , 0.071137264370918 , 0.056775506585836 , -0.119841352105141 , -0.084745913743973 , 0.005174340214580 , -0.052064560353756 , -0.015559813939035 , 0.011629665270448 , 0.103344663977623 , -0.040760997682810 , 0.012570174410939 , 0.063603796064854 , 0.066773347556591 , -0.047517202794552 , 0.099306501448155 , -0.000225027208216 , 0.055859260261059 , 0.039523050189018 , -0.019335607066751 , 0.054038621485233 , -0.014698633924127 , 0.043294299393892 , -0.144673794507980 , 0.030569430440664 , 0.102441757917404 , 0.042679123580456 , 0.022374693304300 , 0.044887218624353 , -0.031563833355904 , -0.032561063766480 , -0.036668494343758 , 0.114871896803379 , -0.104243874549866 , 0.031300190836191 , -0.045953683555126 , 0.041223809123039 ,
		0.170695751905441 , -0.129230603575706 , 0.008246560581028 , 0.060140475630760 , -0.167811304330826 , -0.070582456886768 , 0.072703294456005 , -0.022153960540891 , 0.060096900910139 , 0.284915864467621 , 0.070936031639576 , -0.063504241406918 , 0.010919449850917 , -0.110809780657291 , 0.042129188776016 , -0.038804527372122 , 0.112982548773289 , 0.090942010283470 , -0.008053254336119 , 0.113059923052788 , 0.016528027132154 , -0.105817422270775 , -0.085101112723351 , 0.161317586898804 , -0.104289695620537 , 0.100074924528599 , 0.043844994157553 , 0.012180222198367 , -0.084035865962505 , -0.025151578709483 , -0.017417186871171 , 0.075435221195221 , 0.028113828971982 , -0.146246135234833 , -0.250700980424881 , -0.213468059897423 , -0.036007434129715 , -0.066220268607140 , -0.091853216290474 , -0.090048551559448 , 0.267775326967239 , -0.080062314867973 , 0.024609623476863 , 0.135924875736237 , 0.110697388648987 , 0.093164131045342 , -0.179133161902428 , 0.067723207175732 , -0.076042279601097 , -0.210051864385605 , -0.207977890968323 , 0.118055850267410 , 0.049520529806614 , 0.138280406594276 , 0.011213249526918 , 0.135931611061096 , -0.028261508792639 , -0.085189186036587 , -0.141745999455452 , -0.170205458998680 , -0.119431577622890 , 0.062552675604820 , -0.388720422983170 , -0.346980243921280 , 0.204850852489471 , 0.061881471425295 , 0.050118029117584 , 0.081033796072006 , 0.301812261343002 , 0.033875931054354 , -0.060783844441176 , 0.015603067353368 , -0.082486443221569 , 0.042915832251310 , -0.327687501907349 , 0.213339254260063 , 0.372506111860275 , 0.415273249149323 , 0.295115947723389 , 0.094687767326832 , -0.089970819652081 , 0.218583017587662 , 0.071678690612316 , -0.032804064452648 , 0.103451758623123 , 0.014662534929812 , 0.026807200163603 , 0.317928224802017 , 0.215508297085762 , 0.209580317139626 , 0.607230007648468 , 0.390366852283478 , 0.274267613887787 , -0.094642847776413 , -0.073703490197659 , 0.037743560969830 , -0.201050728559494 , 0.023947324603796 , 0.171237275004387 , 0.024735651910305 , 0.216225698590279 , 0.050727978348732 , 0.304316014051437 , -0.201392486691475 , 0.662230610847473 , 0.596025407314301 , 0.004737050738186 , -0.051819957792759 , 0.222842887043953 , -0.055854212492704 , -0.038036130368710 , -0.043837077915669 , 0.084499195218086 , 0.011016019620001 , -0.012291989289224 , 0.158987730741501 , 0.295338571071625 , -0.065905071794987 , 0.624688208103180 , 0.486594766378403 , -0.249801501631737 , 0.010165727697313 , -0.267259865999222 , -0.073464579880238 , 0.181180700659752 , 0.000267319963314 , 0.051637206226587 , 0.141991391777992 , -0.056067079305649 , -0.131606668233871 , 0.445094436407089 , 0.623776018619537 , 0.062305070459843 , -0.424755662679672 , -0.042389713227749 , -0.207676410675049 , -0.035177081823349 , 0.221515610814095 , 0.125343546271324 , -0.061537895351648 , 0.151365399360657 , 0.078854739665985 , -0.052217945456505 , 0.010601696558297 , -0.110222436487675 , -0.171334460377693 , 0.091825954616070 , 0.301559537649155 , 0.070924088358879 , -0.192280501127243 , 0.074351094663143 , 0.027583256363869 , 0.007606523111463 , -0.192528635263443 , 0.069390095770359 , -0.015030163340271 , 0.124253220856190 , 0.073051758110523 , 0.018183041363955 , -0.087260134518147 , -0.306039541959763 , -0.110232017934322 , -0.053921621292830 , -0.017788965255022 , 0.014569626189768 , -0.087479159235954 , 0.077980898320675 , 0.055400181561709 , 0.012397467158735 , 0.082373335957527 , 0.165939897298813 , -0.023905364796519 , -0.067988157272339 , -0.079399950802326 , -0.018263062462211 , -0.149911448359489 , 0.044345580041409 , -0.140945777297020 , -0.094735972583294 , 0.017083669081330 , 0.039139237254858 , -0.107196427881718 , 0.011148388497531 , 0.072685144841671 , 0.016292246058583 , -0.126186490058899 , -0.117168344557285 , -0.057746049016714 , -0.092917650938034 , -0.250717431306839 , 0.195878908038139 , -0.090336747467518 , 0.157941073179245 , 0.067476183176041 , 0.073651403188705 , 0.093673810362816 , 0.195643961429596 , 0.056685328483582 , 0.068871855735779 , 0.121149599552155 , 0.056598026305437 , -0.018447173759341 , 0.146833717823029 , -0.059260621666908 , -0.166635945439339 , -0.163366094231606 , -0.144565239548683 , -0.054596487432718 , -0.027929462492466 , -0.150593191385269 , 0.100189574062824 , 0.060385715216398 , -0.040699444711208 , 0.094162613153458 , -0.030877277255058 , -0.135128229856491 , -0.063368409872055 , -0.150657773017883 , -0.106829017400742 , -0.173239573836327 , -0.049408528953791 , -0.165156885981560 , -0.077121742069721 , -0.056948591023684 , -0.047289472073317 , 0.087309770286083 , 0.094200886785984 , 0.016199668869376 , -0.028702249750495 , -0.125299692153931 , -0.094711825251579 , -0.163213700056076 , -0.238912910223007 , -0.006078729871660 , -0.101861678063869 , -0.108480349183083 , 0.124835141003132 , -0.109102249145508 , -0.116836301982403 , 0.143236890435219 , -0.060721296817064 , 0.017562825232744 , -0.104903586208820 , 0.219256877899170 , 0.258047670125961 , -0.256823122501373 , -0.328512966632843 , -0.225522547960281 , -0.043146330863237 , -0.090974166989327 , 0.098802305757999 , 0.040818385779858 , -0.109158940613270 , -0.009526876732707 , -0.014278744347394 , 0.066098429262638 , -0.029268976300955 , 0.254507720470428 , 0.350334912538528 , -0.218946650624275 , -0.141139805316925 , -0.232940524816513 , 0.067084901034832 , 0.023636182770133 , 0.016604807227850 , -0.005735796410590 , -0.080235458910465 , -0.063298523426056 , 0.002917901612818 , 0.098259396851063 , 0.201016277074814 , -0.025051238015294 , 0.637979686260223 , -0.064083598554134 , 0.076309829950333 , -0.050342038273811 , 0.297529160976410 , 0.182738333940506 , 0.139751166105270 , -0.038355771452189 , -0.069428198039532 , -0.005551941227168 , -0.132398277521133 , 0.234341725707054 , 0.374913901090622 , 0.161718070507050 , 0.050251573324204 , 0.457025617361069 , 0.083633720874786 , -0.185870781540871 , 0.111029580235481 , 0.135190337896347 , 0.047246217727661 , -0.039395958185196 , 0.053181193768978 , 0.121424302458763 , 0.112134747207165 , 0.044924613088369 , 0.138543248176575 , -0.081860750913620 , 0.118805713951588 , 0.542064487934113 , -0.135362312197685 , 0.098747067153454 , 0.176973104476929 , -0.105401262640953 , 0.049761492758989 , -0.044718522578478 , -0.030475998297334 , 0.138194307684898 , 0.092031329870224 , 0.027224242687225 , 0.020404422655702 , 0.166557803750038 , 0.150476157665253 , 0.370592713356018 , 0.039452314376831 , 0.050924379378557 , -0.191205754876137 , -0.035792887210846 , 0.189484313130379 , 0.038447499275208 , 0.001385272480547 , 0.027201209217310 , -0.014173193834722 , 0.219410017132759 , -0.014399619773030 , 0.077797397971153 , 0.221903443336487 , 0.334939926862717 , -0.171124726533890 , 0.107034020125866 , -0.170937255024910 , 0.150655820965767 , 0.079252168536186 , 0.100263282656670 , -0.018726890906692 , -0.163981571793556 , 0.105792522430420 , 0.053748369216919 , 0.300088256597519 , 0.278314948081970 , 0.154041454195976 , 0.315134346485138 , -0.234689518809319 , -0.380870610475540 , -0.095243819057941 , -0.039659500122070 , -0.068904653191567 , 0.047390803694725 , -0.059069328010082 , -0.187774777412415 , 0.057562932372093 , 0.067326538264751 , -0.178061783313751 , -0.003748343791813 , -0.163299620151520 , -0.280748039484024 , -0.269300609827042 , -0.067591577768326 , -0.022221114486456 , 0.026289533823729 , 0.058041710406542 , 0.003532761475071 , 0.048103034496307 , -0.112102851271629 , 0.133226811885834 , 0.024286342784762 , -0.100144304335117 , -0.099376648664475 , -0.060894981026650 , -0.311020702123642 , -0.041018616408110 , 0.015435563400388 , -0.090096831321716 , 0.047329433262348 , 0.033681519329548 , -0.000384302577004 , -0.030043991282582 , -0.021774612367153 , 0.068894386291504 , 0.048421926796436 , -0.251162350177765 , -0.049382045865059 , 0.105010025203228 , -0.166012257337570 , 0.064066961407661 , -0.006417238619179 , -0.091133907437325 , 0.036223813891411 , -0.112648837268353 , 0.112968474626541 , 0.050060201436281 , 0.014911508187652 , 0.016548847779632 , -0.057879120111466 , 0.139805868268013 , 0.014351606369019 , 0.059310868382454 , 0.129899382591248 , 0.025834189727902 , 0.118363693356514 , -0.046717867255211 , 0.091277860105038 , 0.173825860023499 , 0.142801627516747 , 0.075028777122498 , -0.017058454453945 , 0.065698042511940 , 0.115086190402508 , -0.042445469647646 , 0.031114401295781 , 0.127969264984131 , 0.173658207058907 , 0.039944950491190 , 0.063870541751385 , 0.020339917391539 , 0.113817460834980 , 0.169270932674408 , -0.006496108602732 , 0.079586602747440 , 0.051293075084686 , -0.048372324556112 , 0.070072427392006 , 0.135356232523918 , 0.172465473413467 , 0.021548410877585 , -0.041410069912672 , -0.057661350816488 , 0.063252463936806 , 0.207424595952034 , -0.041464764624834 , -0.044329095631838 , -0.107017844915390 , -0.045158173888922 , -0.021899735555053 , 0.084864646196365 , 0.181700274348259 , 0.010231637395918 , 0.249112859368324 , 0.165620848536491 , 0.054532509297133 , 0.042597405612469 , 0.056474726647139 , 0.018403042107821 , 0.077165961265564 , 0.050476700067520 , 0.051489811390638 , 0.153081282973290 , 0.046842742711306 , 0.011779698543251 , -0.018040496855974 , -0.135000988841057 , -0.067235149443150 , 0.276242882013321 , 0.107056722044945 , -0.101644851267338 , -0.134770810604095 , 0.001835146686062 , 0.002185284392908 , 0.008043768815696 , -0.058055132627487 , 0.096427142620087 , 0.022380616515875 , -0.036853332072496 , -0.183638408780098 , 0.008607371710241 , -0.000290235591820 , -0.102040164172649 , 0.084739603102207 , 0.014413829892874 , -0.107280589640141 , -0.134948432445526 , 0.004501809366047 , -0.004221308045089 , -0.011540177278221 , -0.012815848924220 , -0.088485725224018 , -0.032591987401247 , 0.044262245297432 , -0.005691485013813 , -0.007227710448205 , -0.542825937271118 , -0.136064097285271 , 0.152466624975204 , 0.118533827364445 , -0.158968225121498 , -0.209568738937378 , -0.075133480131626 , 0.057498220354319 , 0.152644366025925 , 0.020500380545855 , 0.064890995621681 , -0.026317387819290 , 0.260941326618195 , 0.391806304454803 , -0.379123359918594 , -0.436769187450409 , -0.319403767585754 , -0.045239061117172 , -0.001247679232620 , -0.098539866507053 , -0.112550906836987 , 0.021595695987344 , -0.024507451802492 , -0.033102035522461 , 0.000963406346273 , -0.269388496875763 , -0.416254520416260 , -0.072726450860500 , 0.138037204742432 , 0.042709466069937 , 0.189635187387466 , 0.212627813220024 , 0.142119228839874 , 0.023408655077219 , -0.056204829365015 , 0.094264380633831 , 0.056150089949369 , 0.071098908782005 , -0.008936078287661 , 0.095368914306164 , 0.175845265388489 , 0.019311429932714 , 0.309653639793396 , 0.024738010019064 , 0.115943945944309 , 0.250942647457123 , 0.020475059747696 , -0.045106969773769 , 0.091276340186596 , 0.092860430479050 , -0.053305204957724 , 0.083522118628025 , 0.057810414582491 , -0.007548830006272 , 0.161233603954315 , 0.316304534673691 , 0.162292897701263 , -0.218347385525703 , 0.056730449199677 , -0.088934309780598 , -0.004224780946970 , 0.021291200071573 , -0.048724364489317 , -0.086251921951771 , 0.099165461957455 , 0.003354975720868 , 0.119971081614494 , 0.117194741964340 , -0.091236792504787 , -0.009979379363358 , -0.110304169356823 , 0.011784299276769 , 0.143084511160851 , 0.051368817687035 , 0.015863623470068 , 0.036545280367136 , -0.026293450966477 , 0.111029088497162 , -0.016390226781368 , 0.090050444006920 , 0.042195975780487 , 0.161873519420624 , -0.046344894915819 , -0.138814672827721 , 0.016803333535790 , 0.066852167248726 , -0.025961341336370 , 0.014845663681626 , -0.001356805092655 , -0.064551927149296 , 0.076113566756249 , 0.077265873551369 , 0.053433783352375 , 0.085374742746353 , 0.013913704082370 , -0.076394379138947 , 0.212545946240425 , 0.111513942480087 , 0.093685954809189 , 0.045776128768921 , -0.081063657999039 , 0.008594457060099 , 0.009001860395074 , 0.131160616874695 , 0.122647151350975 , -0.002933517796919 ,
		-0.040811304003000 , -0.056353665888310 , -0.156378582119942 , 0.132877573370934 , -0.094409875571728 , -0.000881226791535 , -0.037315350025892 , -0.089518412947655 , 0.065056577324867 , 0.333326965570450 , 0.059279751032591 , 0.033193930983543 , -0.180615097284317 , -0.149239644408226 , 0.066151589155197 , -0.026358086615801 , 0.080992564558983 , -0.036250952631235 , 0.016252895817161 , 0.136850640177727 , 0.001594143570401 , -0.107057012617588 , 0.105567358434200 , -0.005684405565262 , 0.035971537232399 , -0.004392803646624 , -0.116908803582191 , -0.020845610648394 , -0.009157693013549 , -0.011698951013386 , 0.022309182211757 , 0.198922976851463 , 0.059492293745279 , -0.154994815587997 , -0.041808184236288 , -0.111611314117908 , -0.088886529207230 , 0.040940530598164 , -0.110419601202011 , -0.008176889270544 , 0.151216134428978 , 0.029443891718984 , 0.048760764300823 , 0.040450811386108 , 0.085950896143913 , 0.027408180758357 , -0.050088118761778 , 0.117131769657135 , 0.134719759225845 , -0.246988192200661 , -0.393031060695648 , 0.153739184141159 , -0.058533921837807 , 0.091390699148178 , -0.011648062616587 , 0.086173973977566 , 0.126056030392647 , -0.058785125613213 , -0.100779980421066 , -0.023828707635403 , -0.017481736838818 , 0.231140986084938 , -0.187617227435112 , -0.413460433483124 , 0.115572907030582 , 0.182176813483238 , 0.069431029260159 , -0.037349350750446 , 0.131587460637093 , -0.014496233314276 , -0.130278423428535 , -0.078388445079327 , -0.119655266404152 , -0.091675609350205 , -0.048915471881628 , 0.355128407478333 , 0.245278164744377 , 0.306110531091690 , 0.229637444019318 , -0.039898000657558 , -0.189277976751328 , 0.152806952595711 , 0.114440880715847 , 0.020743843168020 , -0.026245396584272 , 0.054304335266352 , -0.024692961946130 , 0.280209004878998 , 0.166966706514359 , 0.379682511091232 , 0.351402908563614 , 0.346496194601059 , 0.241938963532448 , -0.179396450519562 , -0.094161249697208 , 0.147983014583588 , -0.196305647492409 , -0.034902255982161 , 0.240651831030846 , 0.164210930466652 , 0.162480160593987 , 0.122811608016491 , 0.069470867514610 , -0.157556548714638 , 0.463486999273300 , 0.556803166866303 , -0.038312841206789 , -0.121102474629879 , 0.032780718058348 , -0.075443498790264 , -0.068236783146858 , -0.125584557652473 , 0.171931564807892 , 0.003313188906759 , -0.055356092751026 , 0.125815749168396 , 0.144103378057480 , -0.094915218651295 , 0.557233095169067 , 0.389393299818039 , -0.193920582532883 , -0.055129077285528 , -0.264127165079117 , -0.222208768129349 , 0.204824507236481 , -0.047982625663281 , 0.104760594666004 , 0.062498077750206 , 0.023318661376834 , -0.160483211278915 , 0.328335672616959 , 0.519911170005798 , 0.014339250512421 , -0.251642107963562 , 0.034687831997871 , -0.088156908750534 , -0.107039377093315 , 0.088594742119312 , 0.221074953675270 , 0.005971973761916 , 0.095721319317818 , 0.124927558004856 , 0.000956239819061 , -0.164484098553658 , -0.022158619016409 , -0.271304696798325 , 0.075421921908855 , 0.290819466114044 , -0.087908610701561 , -0.031728673726320 , 0.058849636465311 , 0.015413566492498 , 0.039757188409567 , -0.130494430661201 , 0.077867820858955 , 0.047870352864265 , 0.077124185860157 , -0.036072894930840 , 0.183816283941269 , -0.111046567559242 , -0.121919691562653 , -0.163537964224815 , -0.198202580213547 , 0.068572521209717 , 0.023711198940873 , -0.019121196120977 , 0.057250298559666 , -0.105247490108013 , -0.056814357638359 , 0.087054446339607 , 0.079279072582722 , 0.050059150904417 , 0.004679467063397 , 0.042510509490967 , -0.049333747476339 , -0.156005054712296 , 0.074981018900871 , -0.138080030679703 , -0.113846987485886 , 0.042786326259375 , -0.027388954535127 , -0.147242546081543 , 0.035238087177277 , 0.029074415564537 , -0.092746213078499 , -0.057346198707819 , 0.099548839032650 , -0.039779771119356 , 0.034480150789022 , -0.236210376024246 , 0.087752968072891 , -0.114294536411762 , -0.016608547419310 , 0.070503026247025 , 0.045684352517128 , -0.039946965873241 , 0.022881941869855 , 0.079753629863262 , 0.029662767425180 , 0.101214513182640 , 0.080488920211792 , -0.164402082562447 , 0.023685710504651 , -0.148303002119064 , -0.007808483671397 , -0.182510957121849 , -0.097482651472092 , -0.201567724347115 , -0.115954220294952 , 0.060422882437706 , -0.056487049907446 , -0.048938233405352 , 0.067142687737942 , 0.040878545492888 , -0.020664894953370 , -0.108960866928101 , 0.115515135228634 , -0.158083364367485 , -0.255923122167587 , -0.149116948246956 , -0.098742775619030 , -0.107851624488831 , -0.004372019320726 , -0.135440200567245 , -0.174008429050446 , 0.030324323102832 , 0.084505029022694 , 0.147554382681847 , 0.145183444023132 , 0.067562356591225 , 0.015461743809283 , -0.148109495639801 , -0.348064064979553 , -0.203132033348083 , -0.241604506969452 , -0.133272662758827 , -0.011749093420804 , -0.175487160682678 , -0.103196501731873 , 0.032918568700552 , 0.015575665980578 , -0.102060176432133 , -0.067164033651352 , 0.087336532771587 , 0.248500242829323 , -0.006229812745005 , -0.452187955379486 , -0.317093521356583 , -0.094534568488598 , -0.130991533398628 , 0.015448260121048 , -0.061041671782732 , 0.034665323793888 , -0.066427081823349 , -0.077334143221378 , -0.094810821115971 , -0.095126986503601 , 0.293476879596710 , 0.315414041280746 , -0.030168874189258 , -0.013972343876958 , -0.014750611037016 , 0.041221015155315 , 0.079637728631496 , 0.118940629065037 , 0.177742421627045 , 0.039785899221897 , 0.053677722811699 , -0.016917770728469 , -0.031158702448010 , 0.206066444516182 , 0.370477408170700 , 0.524428129196167 , 0.156430482864380 , 0.138675406575203 , -0.105345115065575 , 0.178873896598816 , 0.369520604610443 , 0.253737568855286 , 0.059191606938839 , -0.083299525082111 , -0.081831082701683 , -0.078443914651871 , 0.231143876910210 , 0.326885670423508 , 0.190324097871780 , 0.116292677819729 , 0.228098869323730 , 0.200852826237679 , -0.338617712259293 , 0.105251841247082 , 0.119746193289757 , 0.035987384617329 , 0.125878676772118 , -0.028564864769578 , 0.020198252052069 , 0.184917286038399 , 0.129600495100021 , 0.346348762512207 , 0.201335355639458 , -0.039073340594769 , 0.430593729019165 , -0.035324383527041 , -0.165676921606064 , -0.006700679659843 , -0.094501957297325 , 0.163784444332123 , 0.033128302544355 , -0.034325260668993 , 0.143010735511780 , 0.171906292438507 , 0.159273564815521 , 0.099652417004108 , 0.055583596229553 , 0.226944640278816 , 0.228676423430443 , 0.017194759100676 , 0.032120119780302 , -0.093096137046814 , -0.051411915570498 , 0.161277264356613 , -0.110731549561024 , -0.053928967565298 , 0.156484857201576 , 0.169155389070511 , 0.255642026662827 , 0.076272368431091 , -0.007174721919000 , 0.192876264452934 , 0.139768600463867 , -0.074849806725979 , 0.141245007514954 , 0.074121341109276 , 0.020939268171787 , 0.117319010198116 , 0.060050584375858 , 0.084582701325417 , 0.026701990514994 , 0.096533343195915 , 0.016248811036348 , 0.135993421077728 , 0.174410060048103 , -0.009539713151753 , 0.200060844421387 , -0.238196119666100 , -0.088377885520458 , -0.039584904909134 , -0.030721077695489 , -0.046871840953827 , -0.040117848664522 , 0.055489402264357 , -0.148590251803398 , 0.107681423425674 , -0.012647161260247 , -0.134366124868393 , -0.082676753401756 , -0.196797922253609 , -0.264864146709442 , -0.171972274780273 , -0.115505017340183 , -0.160439521074295 , -0.027513723820448 , -0.012071743607521 , -0.090191222727299 , 0.002645997796208 , 0.021870836615562 , 0.032497849315405 , 0.058943703770638 , -0.304502636194229 , -0.044004969298840 , -0.042086660861969 , -0.312917828559875 , -0.019939001649618 , 0.066757455468178 , -0.113980583846569 , -0.081724189221859 , -0.022856038063765 , -0.035705726593733 , 0.084428094327450 , -0.010184940882027 , 0.103416644036770 , -0.039924506098032 , -0.187871456146240 , -0.105135627090931 , 0.200422376394272 , 0.000819050415885 , 0.014964880421758 , -0.055679436773062 , -0.056104164570570 , -0.183823570609093 , -0.181199550628662 , -0.075484946370125 , 0.057574518024921 , -0.009989947080612 , 0.137827649712563 , -0.044102504849434 , 0.112647011876106 , 0.015065063722432 , 0.049106340855360 , 0.020812578499317 , 0.093361459672451 , 0.113188087940216 , -0.027777196839452 , 0.048516634851694 , 0.033085208386183 , 0.067712627351284 , -0.117813065648079 , -0.045773189514875 , 0.050567544996738 , -0.079079985618591 , -0.068763136863709 , -0.044098500162363 , 0.079971440136433 , 0.031075965613127 , -0.055894024670124 , 0.119067631661892 , 0.126118227839470 , 0.126760765910149 , 0.034209284931421 , -0.008541249670088 , 0.013847621157765 , 0.089361190795898 , 0.078050985932350 , -0.007420264184475 , 0.105574540793896 , 0.075906716287136 , -0.048732675611973 , 0.008600802160800 , -0.090633645653725 , 0.101690411567688 , 0.168787628412247 , 0.113060526549816 , 0.049514289945364 , -0.004322278313339 , -0.091702409088612 , -0.043538086116314 , -0.057216234505177 , 0.118343494832516 , -0.013171728700399 , 0.082962229847908 , 0.144900098443031 , 0.162326768040657 , 0.071722559630871 , 0.241259589791298 , 0.151173114776611 , 0.066464111208916 , 0.083902895450592 , -0.096841588616371 , 0.003468960523605 , 0.021202649921179 , -0.027588892728090 , 0.011726907454431 , -0.067382298409939 , -0.081392705440521 , 0.213675752282143 , 0.178635984659195 , -0.061919681727886 , -0.002956099109724 , -0.006726327352226 , -0.134081289172173 , 0.083401620388031 , -0.036340635269880 , 0.141568675637245 , 0.013655458576977 , -0.046805139631033 , -0.103711925446987 , -0.022280573844910 , -0.073610357940197 , -0.110474377870560 , 0.030164934694767 , -0.014840682037175 , -0.092437580227852 , -0.222760975360870 , -0.192170172929764 , 0.020248714834452 , -0.014641343615949 , -0.010373896919191 , -0.139270886778831 , -0.086507827043533 , 0.021021846681833 , 0.000314049015287 , -0.031397808343172 , -0.375998079776764 , -0.060037855058909 , 0.171658620238304 , -0.044447049498558 , -0.179424747824669 , -0.077904269099236 , -0.092955805361271 , 0.086795464158058 , 0.077991381287575 , 0.058283008635044 , -0.055486187338829 , 0.128228679299355 , 0.269961655139923 , 0.334579676389694 , -0.200470536947250 , -0.296904653310776 , -0.219746738672256 , -0.087431900203228 , -0.008731222711504 , -0.099912881851196 , -0.183720022439957 , 0.018371537327766 , 0.038378994911909 , -0.010851167142391 , 0.038764022290707 , -0.329941123723984 , -0.337699085474014 , -0.130734324455261 , 0.228950202465057 , 0.164981752634048 , 0.162376508116722 , 0.175364777445793 , 0.147594854235649 , -0.009626909159124 , -0.018100177869201 , 0.001068218611181 , 0.077212788164616 , -0.064724139869213 , 0.021916136145592 , 0.112282440066338 , 0.054053071886301 , 0.000351287482772 , 0.267529278993607 , 0.067529425024986 , 0.139379754662514 , 0.123573116958141 , 0.085554346442223 , 0.009885963983834 , 0.006777223199606 , 0.140876933932304 , 0.115441404283047 , 0.143606603145599 , 0.111728459596634 , 0.032295059412718 , 0.008133082650602 , 0.312669903039932 , 0.082156851887703 , -0.113589756190777 , 0.103641696274281 , 0.032107874751091 , -0.047677110880613 , -0.055403746664524 , 0.041810799390078 , -0.127672433853149 , 0.115343935787678 , 0.003413930535316 , 0.004577394574881 , 0.194731131196022 , -0.185655996203423 , -0.096428871154785 , -0.136559709906578 , -0.115059889853001 , 0.161502316594124 , 0.091660432517529 , 0.099116317927837 , -0.010570456273854 , 0.114118270576000 , 0.005969206802547 , 0.142947584390640 , -0.042366761714220 , 0.084697134792805 , 0.139364942908287 , -0.006507030222565 , -0.063323147594929 , -0.087430641055107 , 0.088110059499741 , 0.089314289391041 , -0.018162012100220 , -0.132231280207634 , -0.136045992374420 , -0.042053062468767 , 0.001663443632424 , 0.012246977537870 , 0.020712217316032 , 0.075470395386219 , 0.011783843860030 , 0.105016700923443 , 0.046154115349054 , 0.035107173025608 , 0.115624502301216 , -0.008761868812144 , -0.115739516913891 , 0.010881900787354 , 0.046431373804808 , 0.100053198635578 , 0.129203602671623 ,
		0.119066908955574 , -0.009524455294013 , 0.082576729357243 , 0.095244251191616 , 0.062087155878544 , -0.054716460406780 , -0.058986540883780 , -0.073138274252415 , 0.157375946640968 , 0.295626729726791 , -0.085065372288227 , 0.045016862452030 , 0.090224616229534 , 0.009966124780476 , -0.005098744761199 , -0.037754353135824 , 0.059212885797024 , -0.047148503363133 , -0.069756194949150 , 0.031419899314642 , 0.104744754731655 , -0.008726197294891 , -0.153918713331223 , 0.001722649438307 , 0.099745258688927 , 0.129870519042015 , -0.125380188226700 , 0.036314930766821 , 0.012750540859997 , 0.122582413256168 , -0.057489972561598 , -0.032289031893015 , 0.003957206383348 , 0.171881735324860 , 0.051367096602917 , -0.069712892174721 , 0.098330669105053 , 0.068493761122227 , 0.121033109724522 , -0.219268232584000 , -0.144287094473839 , -0.010470222681761 , -0.050259005278349 , -0.092491239309311 , -0.133276283740997 , -0.017490336671472 , 0.130655542016029 , 0.135025769472122 , -0.013463551178575 , 0.003745589870960 , 0.382040083408356 , 0.318021267652512 , 0.128370806574821 , -0.330697089433670 , -0.024554383009672 , 0.150129288434982 , -0.008155417628586 , -0.073489792644978 , -0.083998613059521 , -0.028377046808600 , -0.125194519758224 , 0.222254112362862 , -0.211130365729332 , 0.130118027329445 , 0.394001096487045 , 0.430623948574066 , 0.021506428718567 , -0.224819317460060 , -0.059201020747423 , -0.221550539135933 , -0.093968756496906 , 0.130258932709694 , 0.103386580944061 , -0.052807595580816 , -0.374245047569275 , 0.174150571227074 , 0.176809713244438 , 0.571418821811676 , 0.463937431573868 , 0.189329952001572 , -0.192300260066986 , -0.042890239506960 , -0.258223742246628 , -0.104585684835911 , 0.065974012017250 , 0.160283163189888 , 0.129118457436562 , -0.040543932467699 , -0.061990439891815 , 0.176987394690514 , 0.408353000879288 , 0.328721493482590 , 0.562380433082581 , 0.057820357382298 , -0.302942991256714 , 0.045139074325562 , 0.169457197189331 , 0.088336482644081 , -0.046093448996544 , 0.037685178220272 , -0.112424910068512 , -0.183068007230759 , -0.042043749243021 , -0.399163633584976 , 0.081605829298496 , 0.478090673685074 , 0.107849381864071 , -0.134724900126457 , 0.017429778352380 , 0.048288531601429 , 0.093016505241394 , -0.044067446142435 , 0.052588097751141 , 0.015862258151174 , 0.175546064972878 , 0.050558514893055 , -0.022518292069435 , -0.344748407602310 , 0.604387342929840 , 0.474665582180023 , -0.318130522966385 , -0.249599561095238 , 0.226915121078491 , 0.062833569943905 , 0.087349928915501 , 0.054018072783947 , 0.015474410727620 , -0.073021434247494 , 0.156695440411568 , 0.110465116798878 , 0.373511761426926 , 0.438000261783600 , -0.181620702147484 , -0.345208793878555 , -0.422209680080414 , 0.069685794413090 , 0.229046747088432 , 0.042228747159243 , 0.041880764067173 , -0.182360500097275 , -0.032571051269770 , -0.210913613438606 , 0.073709160089493 , -0.003224942833185 , 0.259571909904480 , -0.059995751827955 , -0.219435825943947 , -0.071790896356106 , 0.174382045865059 , 0.113001435995102 , -0.026246013119817 , -0.098389357328415 , -0.125875607132912 , -0.174348458647728 , -0.067859373986721 , -0.108267895877361 , -0.075610771775246 , -0.170605197548866 , -0.005350206978619 , 0.062632694840431 , -0.085256993770599 , -0.347968667745590 , 0.162826195359230 , 0.050522334873676 , -0.088482581079006 , -0.203830286860466 , -0.292372167110443 , -0.050413709133864 , -0.039247199892998 , 0.091496340930462 , 0.016310505568981 , -0.168360799551010 , -0.133532911539078 , 0.046854682266712 , 0.026896137744188 , -0.001221516635269 , 0.072841599583626 , -0.030216179788113 , 0.005064862780273 , -0.105020396411419 , -0.128672376275063 , 0.052111130207777 , 0.219547033309937 , 0.143322393298149 , -0.049440495669842 , -0.101486347615719 , -0.062987014651299 , -0.016575198620558 , 0.170275554060936 , 0.187842845916748 , 0.082317344844341 , 0.038661364465952 , 0.178636640310287 , 0.060629442334175 , -0.060252938419581 , 0.077120184898377 , -0.012500744313002 , 0.053857076913118 , 0.197949185967445 , 0.126643881201744 , 0.027651632204652 , 0.070511713624001 , 0.287360817193985 , 0.229575186967850 , 0.094822511076927 , 0.026085371151567 , -0.092683374881744 , 0.032522723078728 , -0.055506218224764 , 0.047701988369227 , -0.091525301337242 , -0.090560168027878 , -0.030863787978888 , -0.051913883537054 , 0.120560422539711 , 0.042714096605778 , 0.143523707985878 , -0.047520440071821 , 0.107411026954651 , 0.150603741407394 , 0.156765848398209 , 0.178477630019188 , -0.027436356991530 , -0.003044754266739 , 0.038195803761482 , -0.014249998144805 , 0.093836374580860 , -0.097209565341473 , 0.064403705298901 , 0.167530834674835 , -0.000015331112081 , -0.156147688627243 , 0.094888761639595 , 0.084958210587502 , 0.274883508682251 , 0.097330778837204 , -0.187698066234589 , -0.099795229732990 , 0.019037008285523 , -0.126058280467987 , -0.098605453968048 , 0.032279465347529 , -0.097089052200317 , 0.017254054546356 , 0.054477747529745 , -0.030670952051878 , -0.159708067774773 , 0.107922457158566 , 0.182927042245865 , 0.065051153302193 , -0.198139443993568 , -0.027008796110749 , 0.070166856050491 , -0.016319345682859 , 0.016052907332778 , 0.175941064953804 , -0.010775013826788 , 0.076643452048302 , -0.023733071982861 , -0.193387866020203 , -0.099405169487000 , -0.084991350769997 , 0.105956688523293 , -0.026390148326755 , -0.062365710735321 , 0.007866092957556 , 0.176833763718605 , -0.001087615615688 , 0.107538431882858 , 0.050922159105539 , -0.172347962856293 , -0.321377724409103 , 0.319241046905518 , -0.139053359627724 , 0.254940986633301 , 0.217231452465057 , 0.104341618716717 , -0.078824646770954 , -0.165572583675385 , -0.098185956478119 , -0.017795972526074 , 0.149010807275772 , 0.141784563660622 , -0.088976442813873 , -0.293222486972809 , -0.404829740524292 , -0.473381102085114 , 0.062600858509541 , -0.002588703762740 , 0.191750422120094 , -0.077799521386623 , -0.273759007453918 , -0.103765949606895 , 0.057612091302872 , 0.048925187438726 , -0.081409297883511 , 0.023125013336539 , -0.165688112378120 , -0.002950747031718 , -0.394483745098114 , -0.317339152097702 , 0.395107328891754 , 0.035044983029366 , 0.380407273769379 , -0.245969459414482 , -0.220090657472610 , 0.061873558908701 , 0.005197900813073 , 0.127125650644302 , -0.099220439791679 , -0.224454909563065 , -0.183441802859306 , -0.082489334046841 , -0.105083949863911 , -0.177721634507179 , 0.514708995819092 , 0.049859333783388 , -0.283356755971909 , -0.316799849271774 , -0.080471068620682 , -0.001947024487890 , -0.030520038679242 , 0.081648796796799 , -0.121238104999065 , -0.121974043548107 , -0.181875139474869 , -0.269116789102554 , 0.074202649295330 , 0.134676069021225 , 0.256703436374664 , -0.265428572893143 , -0.194402545690537 , -0.260515034198761 , -0.086588256061077 , 0.125140681862831 , 0.085406370460987 , 0.031126925721765 , -0.086695425212383 , -0.019349141046405 , 0.085543550550938 , 0.195423781871796 , 0.196023225784302 , 0.368884742259979 , 0.223032101988792 , -0.348393648862839 , -0.404280453920364 , -0.207862168550491 , 0.016995748504996 , 0.129689306020737 , -0.016502780839801 , -0.038689963519573 , 0.037875123322010 , -0.084679879248142 , 0.144546166062355 , 0.166102439165115 , 0.223780319094658 , 0.307183563709259 , -0.330706864595413 , -0.264957100152969 , -0.088681831955910 , -0.107514046132565 , 0.020313674584031 , -0.085767045617104 , 0.040244761854410 , 0.061543580144644 , -0.036537725478411 , 0.147506073117256 , -0.015952950343490 , 0.023772874847055 , 0.026040673255920 , -0.064813859760761 , -0.195452764630318 , -0.295350253582001 , -0.044340915977955 , 0.061724551022053 , 0.012669475749135 , -0.113315232098103 , 0.160176321864128 , -0.053068742156029 , 0.070604689419270 , 0.061427026987076 , 0.056359849870205 , -0.029801506549120 , 0.052632540464401 , 0.090030349791050 , -0.331365644931793 , -0.155062124133110 , 0.167729571461678 , 0.156056120991707 , 0.240941733121872 , -0.049989450722933 , 0.142564192414284 , -0.098754614591599 , -0.058019246906042 , -0.082782186567783 , 0.065077371895313 , -0.096945054829121 , -0.084556579589844 , 0.219812035560608 , -0.018328482285142 , 0.027717784047127 , -0.075906924903393 , -0.101989112794399 , 0.077471472322941 , -0.013566786423326 , -0.055826675146818 , -0.071166768670082 , 0.012564290314913 , -0.013928066007793 , -0.056614629924297 , 0.037446271628141 , 0.102926410734653 , 0.149759933352470 , 0.126258239150047 , 0.009624022990465 , 0.060017839074135 , -0.052556522190571 , 0.041643846780062 , 0.042701430618763 , -0.092339038848877 , 0.058848362416029 , -0.119908347725868 , -0.033276837319136 , -0.045573566108942 , -0.068207353353500 , 0.022605147212744 , -0.065484821796417 , 0.061754647642374 , -0.046144519001246 , -0.040998026728630 , -0.115230679512024 , 0.094756864011288 , -0.022754136472940 , -0.059782046824694 , 0.129925951361656 , -0.077905200421810 , 0.111031264066696 , 0.194709599018097 , 0.118419714272022 , -0.056310251355171 , -0.184993326663971 , -0.040097899734974 , 0.090722389519215 , -0.001451806398109 , 0.002571419579908 , 0.034390617161989 , -0.017965732142329 , 0.047000046819449 , 0.104549750685692 , -0.072795271873474 , -0.077838532626629 , 0.147340327501297 , 0.039059717208147 , -0.226286619901657 , -0.252070635557175 , -0.187650218605995 , 0.073301009833813 , -0.044439431279898 , 0.115096680819988 , 0.097638033330441 , 0.107511147856712 , 0.016332086175680 , -0.035234201699495 , 0.050198592245579 , 0.025198381394148 , -0.004873868077993 , -0.061504308134317 , -0.090850979089737 , -0.344059348106384 , 0.033459492027760 , -0.011816378682852 , 0.205852463841438 , 0.155605435371399 , 0.105201505124569 , 0.020939657464624 , -0.017026092857122 , 0.144453123211861 , 0.127011671662331 , -0.026456594467163 , -0.157411560416222 , -0.137768581509590 , -0.253794908523560 , -0.701070189476013 , -0.378600299358368 , -0.060613796114922 , 0.047772493213415 , 0.083792604506016 , 0.255224466323853 , 0.018173072487116 , 0.027578670531511 , 0.055806756019592 , 0.075419098138809 , -0.109788864850998 , 0.034719061106443 , 0.137435808777809 , 0.139939397573471 , -0.350999414920807 , -0.515754997730255 , -0.213786125183105 , -0.001549311680719 , 0.141049414873123 , 0.221479028463364 , 0.106263272464275 , 0.137363985180855 , -0.071765109896660 , 0.108791716396809 , -0.073332928121090 , -0.042161498218775 , 0.047055155038834 , 0.226025536656380 , 0.118090666830540 , 0.000172456828295 , 0.303276151418686 , 0.106362022459507 , -0.008898952044547 , -0.080324843525887 , -0.035473030060530 , 0.030792584642768 , -0.120922058820724 , -0.002483307616785 , 0.104943342506886 , 0.211333468556404 , 0.121567212045193 , 0.124845176935196 , 0.439018696546555 , 0.105111137032509 , -0.058704171329737 , -0.076549813151360 , -0.079805910587311 , 0.044471401721239 , 0.011462756432593 , 0.102986522018909 , 0.101677343249321 , 0.068635024130344 , 0.101094320416451 , 0.195458665490150 , 0.026460180059075 , 0.254489630460739 , 0.451407939195633 , -0.057947482913733 , -0.235289365053177 , -0.130618274211884 , 0.022963529452682 , 0.025105854496360 , 0.060064066201448 , -0.007101783063263 , -0.014290250837803 , 0.025109957903624 , 0.052072618156672 , 0.059189498424530 , -0.012543247081339 , -0.053640343248844 , 0.056072384119034 , 0.122671313583851 , -0.026438012719154 , 0.082116253674030 , 0.110011987388134 , 0.064197227358818 , -0.122834213078022 , -0.043056935071945 , -0.053128194063902 , -0.039882045239210 , 0.018051877617836 , -0.015010066330433 , 0.063342407345772 , -0.085812024772167 , -0.154432743787766 , 0.080467045307159 , 0.009079641662538 , 0.008070620708168 , 0.052039999514818 , 0.045481696724892 , 0.101440317928791 , 0.052799455821514 , 0.138365224003792 , 0.051222220063210 , 0.017275758087635 , -0.091935850679874 , 0.012909501791000 , 0.000967020110693 , -0.011760385707021 , 0.120705813169479 , 0.117894880473614 , 0.063467457890511 , 0.077949978411198 , 0.048841346055269 , 0.065452709794045 , 0.017549145966768 ,
